{"learner":{"attributes":{"scikit_learn":"{\"_estimator_type\": \"classifier\"}"},"feature_names":[],"feature_types":[],"gradient_booster":{"model":{"cats":{"enc":[],"feature_segments":[],"sorted_idx":[]},"gbtree_model_param":{"num_parallel_tree":"1","num_trees":"500"},"iteration_indptr":[0,1,2,3,4,5,6,7,8,9,10,11,12,13,14,15,16,17,18,19,20,21,22,23,24,25,26,27,28,29,30,31,32,33,34,35,36,37,38,39,40,41,42,43,44,45,46,47,48,49,50,51,52,53,54,55,56,57,58,59,60,61,62,63,64,65,66,67,68,69,70,71,72,73,74,75,76,77,78,79,80,81,82,83,84,85,86,87,88,89,90,91,92,93,94,95,96,97,98,99,100,101,102,103,104,105,106,107,108,109,110,111,112,113,114,115,116,117,118,119,120,121,122,123,124,125,126,127,128,129,130,131,132,133,134,135,136,137,138,139,140,141,142,143,144,145,146,147,148,149,150,151,152,153,154,155,156,157,158,159,160,161,162,163,164,165,166,167,168,169,170,171,172,173,174,175,176,177,178,179,180,181,182,183,184,185,186,187,188,189,190,191,192,193,194,195,196,197,198,199,200,201,202,203,204,205,206,207,208,209,210,211,212,213,214,215,216,217,218,219,220,221,222,223,224,225,226,227,228,229,230,231,232,233,234,235,236,237,238,239,240,241,242,243,244,245,246,247,248,249,250,251,252,253,254,255,256,257,258,259,260,261,262,263,264,265,266,267,268,269,270,271,272,273,274,275,276,277,278,279,280,281,282,283,284,285,286,287,288,289,290,291,292,293,294,295,296,297,298,299,300,301,302,303,304,305,306,307,308,309,310,311,312,313,314,315,316,317,318,319,320,321,322,323,324,325,326,327,328,329,330,331,332,333,334,335,336,337,338,339,340,341,342,343,344,345,346,347,348,349,350,351,352,353,354,355,356,357,358,359,360,361,362,363,364,365,366,367,368,369,370,371,372,373,374,375,376,377,378,379,380,381,382,383,384,385,386,387,388,389,390,391,392,393,394,395,396,397,398,399,400,401,402,403,404,405,406,407,408,409,410,411,412,413,414,415,416,417,418,419,420,421,422,423,424,425,426,427,428,429,430,431,432,433,434,435,436,437,438,439,440,441,442,443,444,445,446,447,448,449,450,451,452,453,454,455,456,457,458,459,460,461,462,463,464,465,466,467,468,469,470,471,472,473,474,475,476,477,478,479,480,481,482,483,484,485,486,487,488,489,490,491,492,493,494,495,496,497,498,499,500],"tree_info":[0,0,0,0,0,0,0,0,0,0,0,0,0,0,0,0,0,0,0,0,0,0,0,0,0,0,0,0,0,0,0,0,0,0,0,0,0,0,0,0,0,0,0,0,0,0,0,0,0,0,0,0,0,0,0,0,0,0,0,0,0,0,0,0,0,0,0,0,0,0,0,0,0,0,0,0,0,0,0,0,0,0,0,0,0,0,0,0,0,0,0,0,0,0,0,0,0,0,0,0,0,0,0,0,0,0,0,0,0,0,0,0,0,0,0,0,0,0,0,0,0,0,0,0,0,0,0,0,0,0,0,0,0,0,0,0,0,0,0,0,0,0,0,0,0,0,0,0,0,0,0,0,0,0,0,0,0,0,0,0,0,0,0,0,0,0,0,0,0,0,0,0,0,0,0,0,0,0,0,0,0,0,0,0,0,0,0,0,0,0,0,0,0,0,0,0,0,0,0,0,0,0,0,0,0,0,0,0,0,0,0,0,0,0,0,0,0,0,0,0,0,0,0,0,0,0,0,0,0,0,0,0,0,0,0,0,0,0,0,0,0,0,0,0,0,0,0,0,0,0,0,0,0,0,0,0,0,0,0,0,0,0,0,0,0,0,0,0,0,0,0,0,0,0,0,0,0,0,0,0,0,0,0,0,0,0,0,0,0,0,0,0,0,0,0,0,0,0,0,0,0,0,0,0,0,0,0,0,0,0,0,0,0,0,0,0,0,0,0,0,0,0,0,0,0,0,0,0,0,0,0,0,0,0,0,0,0,0,0,0,0,0,0,0,0,0,0,0,0,0,0,0,0,0,0,0,0,0,0,0,0,0,0,0,0,0,0,0,0,0,0,0,0,0,0,0,0,0,0,0,0,0,0,0,0,0,0,0,0,0,0,0,0,0,0,0,0,0,0,0,0,0,0,0,0,0,0,0,0,0,0,0,0,0,0,0,0,0,0,0,0,0,0,0,0,0,0,0,0,0,0,0,0,0,0,0,0,0,0,0,0,0,0,0,0,0,0,0,0,0,0,0,0,0,0,0,0,0,0,0,0,0,0,0,0,0,0,0,0,0,0,0,0,0,0,0,0,0,0,0,0,0,0,0,0,0,0,0,0,0,0,0,0,0,0,0,0,0,0,0],"trees":[{"base_weights":[3.9842863E-2,-3.8849172E-1,1.8984283E0,-1.5733305E-1,-1.291757E0,8.588072E-1,1.9284724E0,1.0596883E-1,-4.379941E-1,-1.0994434E0,-1.8075459E0,6.637E-2,1.9257316E-1,9.915947E-2,1.5659004E0,2.0386733E-1,-6.4342266E-1,-5.11819E-1,9.0814215E-1,-1.03228986E-1,-1.1813972E0,-6.5325445E-1,-9.2571445E-2,4.0807884E-2,-2.1020977E-2,1.019125E0,9.473066E-2,2.8501077E-2,5.256851E-3,3.1842593E-2,-4.2077776E-2,-1.2211083E-2,-3.381249E-2,5.8294576E-2,2.1158839E-2,-1.7898237E-2,5.621949E-2,-5.053371E-2,-7.46027E-2,6.6319616E-3,-5.555556E-2,6.232946E-2,-5E-2],"categories":[],"categories_nodes":[],"categories_segments":[],"categories_sizes":[],"default_left":[0,0,0,0,0,0,0,0,0,0,0,0,0,0,0,0,0,0,0,0,0,0,0,0,0,0,0,0,0,0,0,0,0,0,0,0,0,0,0,0,0,0,0],"id":0,"left_children":[1,3,5,7,9,11,13,15,17,19,21,-1,23,-1,25,27,29,31,33,35,37,39,-1,-1,-1,41,-1,-1,-1,-1,-1,-1,-1,-1,-1,-1,-1,-1,-1,-1,-1,-1,-1],"loss_changes":[9.206425E2,1.9605058E2,5.10907E0,5.5436104E1,1.699701E1,2.2064795E0,1.0549316E0,2.8562277E1,3.6539474E1,1.1468216E1,1.3448181E0,0E0,2.035049E0,0E0,3.8656235E0,1.2358345E1,1.1955259E1,1.500515E1,1.9107714E0,4.1196146E0,5.4437256E0,1.3679307E0,0E0,0E0,0E0,7.801859E0,0E0,0E0,0E0,0E0,0E0,0E0,0E0,0E0,0E0,0E0,0E0,0E0,0E0,0E0,0E0,0E0,0E0],"parents":[2147483647,0,0,1,1,2,2,3,3,4,4,5,5,6,6,7,7,8,8,9,9,10,10,12,12,14,14,15,15,16,16,17,17,18,18,19,19,20,20,21,21,25,25],"right_children":[2,4,6,8,10,12,14,16,18,20,22,-1,24,-1,26,28,30,32,34,36,38,40,-1,-1,-1,42,-1,-1,-1,-1,-1,-1,-1,-1,-1,-1,-1,-1,-1,-1,-1,-1,-1],"split_conditions":[3.4E1,1.1E1,5.8E1,6E0,1.6E1,7E0,4.1E1,1E0,1.3E1,1.9E1,1E0,6.637E-2,3.6E1,9.915947E-2,1.03E2,6E0,2E0,2.5E1,2.4E1,4E0,5.1E1,1E0,-9.2571445E-2,4.0807884E-2,-2.1020977E-2,3.9E1,9.473066E-2,2.8501077E-2,5.256851E-3,3.1842593E-2,-4.2077776E-2,-1.2211083E-2,-3.381249E-2,5.8294576E-2,2.1158839E-2,-1.7898237E-2,5.621949E-2,-5.053371E-2,-7.46027E-2,6.6319616E-3,-5.555556E-2,6.232946E-2,-5E-2],"split_indices":[7,5,7,5,5,9,9,10,7,2,9,0,7,0,7,9,5,2,2,7,9,0,0,0,0,2,0,0,0,0,0,0,0,0,0,0,0,0,0,0,0,0,0],"split_type":[0,0,0,0,0,0,0,0,0,0,0,0,0,0,0,0,0,0,0,0,0,0,0,0,0,0,0,0,0,0,0,0,0,0,0,0,0,0,0,0,0,0,0],"sum_hessian":[1.1545197E3,9.389237E2,2.1559589E2,7.4853656E2,1.9038715E2,6.886485E0,2.0870941E2,3.8653323E2,3.6200333E2,1.4096097E2,4.942618E1,3.4603033E0,3.4261818E0,1.7745874E2,3.1250668E1,3.4251584E2,4.4017395E1,3.4377008E2,1.8233273E1,1.0886485E1,1.300745E2,2.3920608E0,4.7034122E1,1.5341213E0,1.8920606E0,1.327297E1,1.7977697E1,7.172836E1,2.7078748E2,5.6023636E0,3.841503E1,1.3178546E2,2.119846E2,1.0988849E1,7.2444243E0,9.602364E0,1.2841213E0,8.6688E1,4.3386486E1,1.1420606E0,1.25E0,1.227297E1,1E0],"tree_param":{"num_deleted":"0","num_feature":"12","num_nodes":"43","size_leaf_vector":"1"}},{"base_weights":[-3.9092787E-3,-3.9089787E-1,1.8250458E0,-2.102985E-1,-1.1223316E0,9.192487E-2,1.7388977E-2,-3.3379623E-1,3.6096528E-1,-8.077065E-1,-1.3059864E0,-1.1987439E-1,-5.1972777E-1,8.717235E-1,1.2584169E-1,-1.1022041E0,-4.455119E-1,-6.028169E-1,-1.4408915E0,4.3823123E-3,-2.0053878E-2,-2.2502752E-2,-5.497191E-2,2.761957E-2,5.757243E-2,-3.844245E-2,9.131862E-3,-6.6514365E-2,-3.47479E-2,-1.377741E-2,-7.440116E-2,-1.05733685E-2,-5.615694E-2,-7.426788E-2,-3.9909463E-2],"categories":[],"categories_nodes":[],"categories_segments":[],"categories_sizes":[],"default_left":[0,0,0,0,0,0,0,0,0,0,0,0,0,0,0,0,0,0,0,0,0,0,0,0,0,0,0,0,0,0,0,0,0,0,0],"id":1,"left_children":[1,3,5,7,9,-1,-1,11,13,15,17,19,21,23,25,27,29,31,33,-1,-1,-1,-1,-1,-1,-1,-1,-1,-1,-1,-1,-1,-1,-1,-1],"loss_changes":[8.084449E2,1.2429596E2,3.324463E0,5.354691E1,9.718613E0,0E0,0E0,2.472512E1,1.6113724E1,7.1186447E0,1.0145401E1,1.7021538E1,1.2959488E1,3.1527977E0,4.9005175E0,2.6673737E0,5.556293E0,3.918335E0,1.5778809E0,0E0,0E0,0E0,0E0,0E0,0E0,0E0,0E0,0E0,0E0,0E0,0E0,0E0,0E0,0E0,0E0],"parents":[2147483647,0,0,1,1,2,2,3,3,4,4,7,7,8,8,9,9,10,10,11,11,12,12,13,13,14,14,15,15,16,16,17,17,18,18],"right_children":[2,4,6,8,10,-1,-1,12,14,16,18,20,22,24,26,28,30,32,34,-1,-1,-1,-1,-1,-1,-1,-1,-1,-1,-1,-1,-1,-1,-1,-1],"split_conditions":[3.8E1,3E0,3E0,1E1,2.5E1,9.192487E-2,1.7388977E-2,2E0,2.3E1,1E0,2E0,2.8E1,1E0,6E0,2E0,1.5E1,5E0,1.3E1,2E0,4.3823123E-3,-2.0053878E-2,-2.2502752E-2,-5.497191E-2,2.761957E-2,5.757243E-2,-3.844245E-2,9.131862E-3,-6.6514365E-2,-3.47479E-2,-1.377741E-2,-7.440116E-2,-1.05733685E-2,-5.615694E-2,-7.426788E-2,-3.9909463E-2],"split_indices":[7,3,6,7,2,0,0,3,2,0,4,2,10,6,6,6,3,6,7,0,0,0,0,0,0,0,0,0,0,0,0,0,0,0,0],"split_type":[0,0,0,0,0,0,0,0,0,0,0,0,0,0,0,0,0,0,0,0,0,0,0,0,0,0,0,0,0,0,0,0,0,0,0],"sum_hessian":[1.1402106E3,9.417351E2,1.9847546E2,7.5628674E2,1.8544836E2,1.964422E2,2.033261E0,6.2219434E2,1.3409239E2,7.034166E1,1.15106705E2,2.9008472E2,3.3210965E2,4.141633E1,9.267606E1,3.7669636E1,3.2672024E1,1.9409021E1,9.5697685E1,1.6730576E2,1.2277897E2,2.9806317E2,3.4046482E1,2.0728079E1,2.0688251E1,4.7836046E0,8.7892456E1,2.2693388E1,1.4976247E1,2.9179169E1,3.4928544E0,1.1880078E1,7.5289426E0,8.8278915E1,7.418769E0],"tree_param":{"num_deleted":"0","num_feature":"12","num_nodes":"35","size_leaf_vector":"1"}},{"base_weights":[1.407441E-2,-3.5704565E-1,8.779413E-2,-1.5087259E-1,-1.1754353E0,-7.349502E-2,-8.720984E-1,-9.398734E-1,-1.6108915E0,3.2373846E-1,-2.2619607E-1,-5.981381E-1,-1.3538907E0,-8.423993E-1,-1.5921878E0,-1.3404573E0,-9.048385E-2,5.698576E-3,2.3308244E-2,3.6098384E-3,-1.7222399E-2,-3.452E-2,1.2103543E-2,-8.881353E-2,-4.316778E-2,-4.724183E-2,-1.7817995E-2,-8.688081E-2,-2.3609873E-2,-8.056699E-2,-4.9908053E-2],"categories":[],"categories_nodes":[],"categories_segments":[],"categories_sizes":[],"default_left":[0,0,0,0,0,0,0,0,0,0,0,0,0,0,0,0,0,0,0,0,0,0,0,0,0,0,0,0,0,0,0],"id":2,"left_children":[1,3,-1,5,7,9,11,13,15,17,19,21,23,25,27,29,-1,-1,-1,-1,-1,-1,-1,-1,-1,-1,-1,-1,-1,-1,-1],"loss_changes":[7.46293E2,1.6041196E2,0E0,4.2425964E1,1.8116577E1,4.1848392E1,8.915211E0,6.7079926E0,1.1105347E0,5.6724873E0,1.7599054E1,3.9470997E0,3.8362732E0,5.25251E0,1.6770515E0,1.3332481E0,0E0,0E0,0E0,0E0,0E0,0E0,0E0,0E0,0E0,0E0,0E0,0E0,0E0,0E0,0E0],"parents":[2147483647,0,0,1,1,3,3,4,4,5,5,6,6,7,7,8,8,9,9,10,10,11,11,12,12,13,13,14,14,15,15],"right_children":[2,4,-1,6,8,10,12,14,16,18,20,22,24,26,28,30,-1,-1,-1,-1,-1,-1,-1,-1,-1,-1,-1,-1,-1,-1,-1],"split_conditions":[4.8E1,1.1E1,8.779413E-2,1E0,1.5E1,1E0,5.8E0,1E0,4.375E-1,1.1E1,5E0,3E0,9E0,1.5E1,2E0,1.6E1,-9.048385E-2,5.698576E-3,2.3308244E-2,3.6098384E-3,-1.7222399E-2,-3.452E-2,1.2103543E-2,-8.881353E-2,-4.316778E-2,-4.724183E-2,-1.7817995E-2,-8.688081E-2,-2.3609873E-2,-8.056699E-2,-4.9908053E-2],"split_indices":[7,5,0,10,5,4,11,10,10,7,5,4,6,6,7,6,0,0,0,0,0,0,0,0,0,0,0,0,0,0,0],"split_type":[0,0,0,0,0,0,0,0,0,0,0,0,0,0,0,0,0,0,0,0,0,0,0,0,0,0,0,0,0,0,0],"sum_hessian":[1.152532E3,9.5075366E2,2.0177824E2,7.603792E2,1.9037445E2,6.877004E2,7.2678856E1,1.2559284E2,6.478161E1,1.9064366E2,4.9705673E2,4.776172E1,2.4917135E1,1.1125902E2,1.4333823E1,3.0725252E1,3.4056355E1,7.782399E1,1.1281967E2,1.4118494E2,3.558718E2,4.3196667E1,4.565053E0,1.1980299E1,1.2936836E1,9.111231E1,2.0146704E1,1.2198426E1,2.1353972E0,1.5082223E1,1.5643028E1],"tree_param":{"num_deleted":"0","num_feature":"12","num_nodes":"31","size_leaf_vector":"1"}},{"base_weights":[-1.6691834E-2,1.6381612E0,-3.8666004E-1,8.602499E-2,1.1439471E0,-1.6297616E-1,-1.1079199E0,6.6097334E-2,-1.4295043E-1,6.929055E-2,-4.4026428E-1,-8.973415E-1,-1.5593761E0,-7.71582E-1,3.764694E-2,1.5641376E-1,-6.0297835E-1,-1.9272168E-1,-6.8129194E-1,-5.3623784E-1,-1.127661E0,1.09839775E-2,-1.5923334E0,-5.8119435E-2,2.1239831E-4,2.9497156E-2,2.9599636E-3,-6.26019E-2,-1.5848791E-2,1.6794033E-2,-1.4505975E-2,-3.8444232E-2,4.874457E-3,-3.3662975E-2,1.4226584E-3,-7.071454E-2,-4.5634802E-2,1.0959618E-2,-8.131967E-2],"categories":[],"categories_nodes":[],"categories_segments":[],"categories_sizes":[],"default_left":[0,0,0,0,0,0,0,0,0,0,0,0,0,0,0,0,0,0,0,0,0,0,0,0,0,0,0,0,0,0,0,0,0,0,0,0,0,0,0],"id":3,"left_children":[1,3,5,-1,7,9,11,-1,13,15,17,19,21,23,-1,25,27,29,31,33,35,-1,37,-1,-1,-1,-1,-1,-1,-1,-1,-1,-1,-1,-1,-1,-1,-1,-1],"loss_changes":[7.010072E2,6.545166E0,1.5078606E2,0E0,7.7164917E0,4.610609E1,1.964209E1,0E0,3.337982E0,2.2946756E1,1.9333344E1,1.2144058E1,4.3981476E0,1.026932E0,0E0,1.4555887E1,7.9509315E0,8.455294E0,1.1323563E1,4.785574E0,4.420021E0,0E0,4.5466156E0,0E0,0E0,0E0,0E0,0E0,0E0,0E0,0E0,0E0,0E0,0E0,0E0,0E0,0E0,0E0,0E0],"parents":[2147483647,0,0,1,1,2,2,4,4,5,5,6,6,8,8,9,9,10,10,11,11,12,12,13,13,15,15,16,16,17,17,18,18,19,19,20,20,22,22],"right_children":[2,4,6,-1,8,10,12,-1,14,16,18,20,22,24,-1,26,28,30,32,34,36,-1,38,-1,-1,-1,-1,-1,-1,-1,-1,-1,-1,-1,-1,-1,-1,-1,-1],"split_conditions":[-7E-1,-6.9E0,8.7E0,8.602499E-2,6.7E1,6E0,1.5E1,6.6097334E-2,1E0,8.4E1,2.7E1,2.5E1,1.07E1,1E0,3.764694E-2,5E0,2.2E0,1E0,8.3E0,5E0,3.1E1,1.09839775E-2,1E0,-5.8119435E-2,2.1239831E-4,2.9497156E-2,2.9599636E-3,-6.26019E-2,-1.5848791E-2,1.6794033E-2,-1.4505975E-2,-3.8444232E-2,4.874457E-3,-3.3662975E-2,1.4226584E-3,-7.071454E-2,-4.5634802E-2,1.0959618E-2,-8.131967E-2],"split_indices":[11,11,11,0,9,5,5,0,0,9,2,2,11,10,0,9,11,4,11,4,2,0,4,0,0,0,0,0,0,0,0,0,0,0,0,0,0,0,0],"split_type":[0,0,0,0,0,0,0,0,0,0,0,0,0,0,0,0,0,0,0,0,0,0,0,0,0,0,0,0,0,0,0,0,0,0,0,0,0,0,0],"sum_hessian":[1.1429474E3,2.0820898E2,9.3473834E2,1.7634737E2,3.186162E1,7.14406E2,2.2033232E2,2.7966192E1,3.8954284E0,3.8917166E2,3.2523434E2,1.5228688E2,6.804545E1,2.370699E0,1.5247296E0,3.4520224E2,4.3969425E1,1.613365E2,1.6389784E2,6.060161E1,9.1685265E1,1.1345788E0,6.6910866E1,1.2452039E0,1.125495E0,6.230112E1,2.8290112E2,1.2415569E1,3.1553856E1,2.4720985E1,1.3661552E2,1.4733875E2,1.6559092E1,4.8613365E1,1.1988244E1,3.690189E1,5.4783375E1,1.1345167E0,6.577635E1],"tree_param":{"num_deleted":"0","num_feature":"12","num_nodes":"39","size_leaf_vector":"1"}},{"base_weights":[-1.5062879E-2,-3.7661E-1,1.580197E0,-1.7862347E-1,-1.1176963E0,7.668686E-1,8.1697255E-2,8.75682E-2,-3.514276E-1,-9.5810425E-1,-7.957225E-2,-2.5602276E-2,9.891202E-1,2.8414598E-1,-7.755241E-2,-4.0573475E-1,1.0402259E0,-1.0179325E0,1.4363852E-1,-7.957897E-3,1.1388063E0,1.8628191E-2,-2.5503194E-2,-2.494395E-3,-6.9271535E-2,-3.3429188E-3,-2.6816985E-2,6.754147E-2,2.0710515E-2,-4.6797883E-2,-7.006702E-2,3.418837E-2,-3.4459442E-2,6.60944E-2,-6.366917E-3],"categories":[],"categories_nodes":[],"categories_segments":[],"categories_sizes":[],"default_left":[0,0,0,0,0,0,0,0,0,0,0,0,0,0,0,0,0,0,0,0,0,0,0,0,0,0,0,0,0,0,0,0,0,0,0],"id":4,"left_children":[1,3,5,7,9,11,-1,13,15,17,-1,-1,19,21,23,25,27,29,31,-1,33,-1,-1,-1,-1,-1,-1,-1,-1,-1,-1,-1,-1,-1,-1],"loss_changes":[6.5860754E2,1.3638518E2,7.970215E0,3.38777E1,1.32994995E1,4.7595387E0,0E0,9.449584E0,3.4157528E1,9.979263E0,0E0,0E0,2.430954E0,9.516017E0,5.6706896E0,1.9010033E1,2.7548313E0,3.1394043E0,4.3217826E0,0E0,2.8809156E0,0E0,0E0,0E0,0E0,0E0,0E0,0E0,0E0,0E0,0E0,0E0,0E0,0E0,0E0],"parents":[2147483647,0,0,1,1,2,2,3,3,4,4,5,5,7,7,8,8,9,9,12,12,13,13,14,14,15,15,16,16,17,17,18,18,20,20],"right_children":[2,4,6,8,10,12,-1,14,16,18,-1,-1,20,22,24,26,28,30,32,-1,34,-1,-1,-1,-1,-1,-1,-1,-1,-1,-1,-1,-1,-1,-1],"split_conditions":[2.8E1,9E0,5.8E1,3.9E0,1.6E1,-2.6E0,8.1697255E-2,2.6E1,1.3E1,4E0,-7.957225E-2,-2.5602276E-2,2.1E1,1.8E2,5.5E1,1.25E-1,9E1,3.7E1,9E1,-7.957897E-3,3E0,1.8628191E-2,-2.5503194E-2,-2.494395E-3,-6.9271535E-2,-3.3429188E-3,-2.6816985E-2,6.754147E-2,2.0710515E-2,-4.6797883E-2,-7.006702E-2,3.418837E-2,-3.4459442E-2,6.60944E-2,-6.366917E-3],"split_indices":[7,11,7,11,5,11,0,2,7,7,0,0,2,8,2,10,8,2,8,0,5,0,0,0,0,0,0,0,0,0,0,0,0,0,0],"split_type":[0,0,0,0,0,0,0,0,0,0,0,0,0,0,0,0,0,0,0,0,0,0,0,0,0,0,0,0,0,0,0,0,0,0,0],"sum_hessian":[1.1398741E3,9.2988947E2,2.0998473E2,7.348184E2,1.9507101E2,1.39629E1,1.9602182E2,2.8944446E2,4.45374E2,1.4817694E2,4.689407E1,1.8741986E0,1.2088701E1,1.3180656E2,1.576379E2,4.2932855E2,1.6045431E1,1.4061703E2,7.5599065E0,1.3868176E0,1.0701884E1,1.1908046E2,1.2726096E1,1.5538922E2,2.2486799E0,1.1985545E2,3.0947308E2,9.950549E0,6.0948825E0,1.1868304E2,2.1933998E1,4.6943645E0,2.8655422E0,9.311444E0,1.3904397E0],"tree_param":{"num_deleted":"0","num_feature":"12","num_nodes":"35","size_leaf_vector":"1"}},{"base_weights":[8.429398E-3,-3.395811E-1,1.5407306E0,-1.5025216E-1,-1.0421104E0,6.428061E-1,1.5686706E0,-7.373524E-2,-7.446885E-1,-8.169655E-1,-1.475627E0,-1.196952E-1,1.0071372E0,7.9742506E-2,9.272394E-1,1.3262525E-1,-2.995447E-1,-9.7675866E-1,-6.7875855E-2,-3.3740762E-1,-1.0429779E0,1.0552754E-2,-1.508182E0,2.0515106E-3,-1.0679102E-2,6.1644364E-2,3.289345E-3,-6.322961E-2,6.7861535E-2,2.8002387E-2,1.8861784E-3,-1.8885935E-2,3.1770255E-2,-2.4527317E-2,-5.5911895E-2,1.6913934E-2,-3.6687184E-2,-4.057486E-2,-2.5372205E-3,-2.4438867E-2,-5.7909943E-2,-1.15639E-2,-7.708652E-2],"categories":[],"categories_nodes":[],"categories_segments":[],"categories_sizes":[],"default_left":[0,0,0,0,0,0,0,0,0,0,0,0,0,0,0,0,0,0,0,0,0,0,0,0,0,0,0,0,0,0,0,0,0,0,0,0,0,0,0,0,0,0,0],"id":5,"left_children":[1,3,5,7,9,11,13,15,17,19,21,23,25,-1,27,29,31,33,35,37,39,-1,41,-1,-1,-1,-1,-1,-1,-1,-1,-1,-1,-1,-1,-1,-1,-1,-1,-1,-1,-1,-1],"loss_changes":[6.107178E2,1.2398266E2,4.3094482E0,3.343769E1,1.8116241E1,2.368198E0,1.9615173E0,3.0491035E1,1.3106258E1,1.4012901E1,3.9658203E0,6.172501E-2,1.1049275E0,0E0,1.1539458E1,1.3857189E1,2.3069E1,3.7422943E0,6.3301125E0,5.929386E0,5.155464E0,0E0,2.4404297E0,0E0,0E0,0E0,0E0,0E0,0E0,0E0,0E0,0E0,0E0,0E0,0E0,0E0,0E0,0E0,0E0,0E0,0E0,0E0,0E0],"parents":[2147483647,0,0,1,1,2,2,3,3,4,4,5,5,6,6,7,7,8,8,9,9,10,10,11,11,12,12,14,14,15,15,16,16,17,17,18,18,19,19,20,20,22,22],"right_children":[2,4,6,8,10,12,14,16,18,20,22,24,26,-1,28,30,32,34,36,38,40,-1,42,-1,-1,-1,-1,-1,-1,-1,-1,-1,-1,-1,-1,-1,-1,-1,-1,-1,-1,-1,-1],"split_conditions":[2.9E1,1.1E1,3.4E1,1E0,1.5E1,2.5E1,9.2E1,6E0,3.8E1,2.4E1,1E0,2.2E1,4E1,7.9742506E-2,8.2E1,5E0,1E1,4E0,7E0,1.8E1,1.2E1,1.0552754E-2,1.7E1,2.0515106E-3,-1.0679102E-2,6.1644364E-2,3.289345E-3,-6.322961E-2,6.7861535E-2,2.8002387E-2,1.8861784E-3,-1.8885935E-2,3.1770255E-2,-2.4527317E-2,-5.5911895E-2,1.6913934E-2,-3.6687184E-2,-4.057486E-2,-2.5372205E-3,-2.4438867E-2,-5.7909943E-2,-1.15639E-2,-7.708652E-2],"split_indices":[7,5,7,10,5,2,9,5,2,2,4,2,2,0,7,9,7,5,5,9,9,0,2,0,0,0,0,0,0,0,0,0,0,0,0,0,0,0,0,0,0,0,0],"split_type":[0,0,0,0,0,0,0,0,0,0,0,0,0,0,0,0,0,0,0,0,0,0,0,0,0,0,0,0,0,0,0,0,0,0,0,0,0,0,0,0,0,0,0],"sum_hessian":[1.1432788E3,9.323136E2,2.1096518E2,7.353528E2,1.9696083E2,7.090804E0,2.0387437E2,6.524875E2,8.2865326E1,1.3153381E2,6.5427025E1,2.509722E0,4.5810823E0,1.9445163E2,9.422753E0,3.4114133E2,3.1134613E2,6.1376846E1,2.1488483E1,4.293221E1,8.860161E1,1.1350856E0,6.429194E1,1.1330422E0,1.3766797E0,3.4451756E0,1.1359066E0,1.2270474E0,8.195706E0,6.1091827E1,2.800495E2,2.8787225E2,2.3473873E1,1.4841004E1,4.653584E1,1.3652774E1,7.835709E0,1.548762E1,2.7444588E1,1.6152384E1,7.244922E1,1.8479998E0,6.244394E1],"tree_param":{"num_deleted":"0","num_feature":"12","num_nodes":"43","size_leaf_vector":"1"}},{"base_weights":[-9.204412E-3,-3.254083E-1,1.5100826E0,-1.132297E-1,-1.0142608E0,7.892927E-2,1.1738878E0,1.4589094E-1,-3.0226406E-1,-6.859529E-1,-1.2286323E0,1.454542E-1,1.3344334E0,5.9968174E-1,3.641388E-2,-3.5585266E-1,1.0852334E0,-4.9333584E-1,-7.06267E-2,-7.0651066E-1,-1.356396E0,4.7841296E-1,-2.4297055E-2,7.0597574E-2,3.1789508E-1,-3.552222E-2,3.3406686E-2,6.6586034E-3,-2.794194E-2,-1.4262271E-2,-4.6428703E-2,7.131427E-2,2.1941181E-2,-4.919264E-2,-1.1938777E-2,-1.9488506E-2,-7.6630495E-2,-6.8742506E-2,-5.6396914E-3,4.3084946E-2,-1.1428024E-2,-1.6980961E-2,4.3464083E-2],"categories":[],"categories_nodes":[],"categories_segments":[],"categories_sizes":[],"default_left":[0,0,0,0,0,0,0,0,0,0,0,0,0,0,0,0,0,0,0,0,0,0,0,0,0,0,0,0,0,0,0,0,0,0,0,0,0,0,0,0,0,0,0],"id":6,"left_children":[1,3,5,7,9,-1,11,13,15,17,19,21,23,25,27,29,31,33,-1,35,37,39,-1,-1,41,-1,-1,-1,-1,-1,-1,-1,-1,-1,-1,-1,-1,-1,-1,-1,-1,-1,-1],"loss_changes":[5.3986487E2,1.3583609E2,2.6054382E0,3.493164E1,1.4564117E1,0E0,5.860569E0,1.493683E1,3.1030464E1,1.1722343E1,7.791931E0,1.5093808E0,2.0409546E0,5.717207E0,1.4107269E1,1.581205E1,2.8072968E0,8.715559E0,0E0,6.6963015E0,2.2384796E0,1.4110905E0,0E0,0E0,1.5747521E0,0E0,0E0,0E0,0E0,0E0,0E0,0E0,0E0,0E0,0E0,0E0,0E0,0E0,0E0,0E0,0E0,0E0,0E0],"parents":[2147483647,0,0,1,1,2,2,3,3,4,4,6,6,7,7,8,8,9,9,10,10,11,11,12,12,13,13,14,14,15,15,16,16,17,17,19,19,20,20,21,21,24,24],"right_children":[2,4,6,8,10,-1,12,14,16,18,20,22,24,26,28,30,32,34,-1,36,38,40,-1,-1,42,-1,-1,-1,-1,-1,-1,-1,-1,-1,-1,-1,-1,-1,-1,-1,-1,-1,-1],"split_conditions":[3.4E1,8.7E0,3.1E1,3.9E0,2.5E1,7.892927E-2,6.8E1,5E0,1.3E1,1.6E1,9.5E0,6.4E1,4.2E1,2E0,1E0,1E0,1.6E1,1.8E1,-7.06267E-2,3.6E1,8E0,3.5E1,-2.4297055E-2,7.0597574E-2,1.39E2,-3.552222E-2,3.3406686E-2,6.6586034E-3,-2.794194E-2,-1.4262271E-2,-4.6428703E-2,7.131427E-2,2.1941181E-2,-4.919264E-2,-1.1938777E-2,-1.9488506E-2,-7.6630495E-2,-6.8742506E-2,-5.6396914E-3,4.3084946E-2,-1.1428024E-2,-1.6980961E-2,4.3464083E-2],"split_indices":[7,11,9,11,2,0,7,9,7,5,11,7,2,6,10,10,9,9,0,2,7,2,0,0,7,0,0,0,0,0,0,0,0,0,0,0,0,0,0,0,0,0,0],"split_type":[0,0,0,0,0,0,0,0,0,0,0,0,0,0,0,0,0,0,0,0,0,0,0,0,0,0,0,0,0,0,0,0,0,0,0,0,0,0,0,0,0,0,0],"sum_hessian":[1.1217484E3,9.291529E2,1.9259554E2,7.112422E2,2.1791069E2,1.5692516E2,3.567038E1,3.0010233E2,4.111399E2,8.773906E1,1.3017163E2,5.0738664E0,3.0596512E1,5.745777E1,2.4264456E2,3.9656702E2,1.4572879E1,7.068058E1,1.7058481E1,2.6874697E1,1.0329693E2,3.4806695E0,1.5931969E0,2.8067215E1,2.5292964E0,2.3873181E0,5.507045E1,2.093853E2,3.3259262E1,3.5437622E2,4.2190784E1,8.749886E0,5.8229933E0,2.3169647E1,4.751093E1,2.049022E1,6.384479E0,1.016825E2,1.6144253E0,2.115107E0,1.3655623E0,1.3288001E0,1.2004964E0],"tree_param":{"num_deleted":"0","num_feature":"12","num_nodes":"43","size_leaf_vector":"1"}},{"base_weights":[4.1619423E-3,1.4413854E0,-3.01713E-1,1.4765809E0,7.046097E-1,-1.3122553E-1,-9.629862E-1,7.658305E-2,1.1170852E0,5.6007635E-2,1.895645E-1,-6.515566E-2,-6.7366713E-1,-6.551268E-1,-1.2512664E0,1.2226536E0,-6.0974206E-3,5.0760657E-2,-7.8779536E-1,1.385238E-1,-1.9974364E-1,-8.879642E-1,5.504381E-1,1.2706894E-1,-8.000879E-1,-1.0602449E0,-7.7263474E-2,1.0735559E-2,6.401278E-2,-3.6885528E-4,-5.870534E-2,5.2842763E-3,6.076751E-2,-9.0095615E-3,-7.3915504E-2,-6.571942E-2,-2.7580863E-2,4.2308006E-2,-5.102768E-2,-1.3891148E-2,5.037562E-2,-3.5743676E-3,-4.4755578E-2,-6.765871E-2,-3.537396E-2],"categories":[],"categories_nodes":[],"categories_segments":[],"categories_sizes":[],"default_left":[0,0,0,0,0,0,0,0,0,0,0,0,0,0,0,0,0,0,0,0,0,0,0,0,0,0,0,0,0,0,0,0,0,0,0,0,0,0,0,0,0,0,0,0,0],"id":7,"left_children":[1,3,5,7,9,11,13,-1,15,-1,17,19,21,23,25,27,-1,-1,29,31,33,35,37,39,41,43,-1,-1,-1,-1,-1,-1,-1,-1,-1,-1,-1,-1,-1,-1,-1,-1,-1,-1,-1],"loss_changes":[4.9946344E2,4.129364E0,1.05486404E2,2.0386963E0,2.142405E0,2.668966E1,1.6207626E1,0E0,3.9232254E0,0E0,5.73564E0,1.8285976E1,2.1706326E1,1.0859623E1,3.864334E0,1.2740746E0,0E0,0E0,1.0055473E0,9.263287E0,9.769619E0,9.202366E0,6.7486167E0,5.875662E0,5.487236E0,5.509186E0,0E0,0E0,0E0,0E0,0E0,0E0,0E0,0E0,0E0,0E0,0E0,0E0,0E0,0E0,0E0,0E0,0E0,0E0,0E0],"parents":[2147483647,0,0,1,1,2,2,3,3,4,4,5,5,6,6,8,8,10,10,11,11,12,12,13,13,14,14,15,15,18,18,19,19,20,20,21,21,22,22,23,23,24,24,25,25],"right_children":[2,4,6,8,10,12,14,-1,16,-1,18,20,22,24,26,28,-1,-1,30,32,34,36,38,40,42,44,-1,-1,-1,-1,-1,-1,-1,-1,-1,-1,-1,-1,-1,-1,-1,-1,-1,-1,-1],"split_conditions":[1E0,2E0,1.1E1,4.1E1,1E0,1E0,4.375E-1,7.658305E-2,4.2E1,5.6007635E-2,-8E0,5E0,4.1E1,1.9E1,1.5E1,4.3E1,-6.0974206E-3,5.0760657E-2,9E1,1.2E1,1.7E1,8.8E1,9E0,1.25E-1,3E0,1.1E1,-7.7263474E-2,1.0735559E-2,6.401278E-2,-3.6885528E-4,-5.870534E-2,5.2842763E-3,6.076751E-2,-9.0095615E-3,-7.3915504E-2,-6.571942E-2,-2.7580863E-2,4.2308006E-2,-5.102768E-2,-1.3891148E-2,5.037562E-2,-3.5743676E-3,-4.4755578E-2,-6.765871E-2,-3.537396E-2],"split_indices":[5,6,5,9,1,10,10,0,2,0,9,5,2,2,5,9,0,0,8,6,6,9,5,10,9,6,0,0,0,0,0,0,0,0,0,0,0,0,0,0,0,0,0,0,0],"split_type":[0,0,0,0,0,0,0,0,0,0,0,0,0,0,0,0,0,0,0,0,0,0,0,0,0,0,0,0,0,0,0,0,0,0,0,0,0,0,0,0,0,0,0,0,0],"sum_hessian":[1.1341603E3,1.9836842E2,9.3579193E2,1.8836615E2,1.0002284E1,7.449338E2,1.9085812E2,1.605126E2,2.785355E1,4.885642E0,5.116642E0,6.6505023E2,7.9883575E1,9.387738E1,9.698074E1,2.5678873E1,2.1746767E0,2.752592E0,2.3640497E0,2.6459485E2,4.0045535E2,6.8215996E1,1.1667581E1,1.4697043E1,7.918034E1,6.1578094E1,3.540265E1,1.6437273E0,2.4035147E1,1.1201806E0,1.2438691E0,2.5783035E2,6.7645006E0,3.955474E2,4.907953E0,2.8797894E1,3.94181E1,1.0207512E1,1.460068E0,1.0536189E1,4.1608543E0,9.337408E0,6.984293E1,3.209291E1,2.948518E1],"tree_param":{"num_deleted":"0","num_feature":"12","num_nodes":"45","size_leaf_vector":"1"}},{"base_weights":[-1.9665035E-4,7.252241E-2,-2.788459E-1,-9.632992E-2,-1.0133014E0,1.5026677E-1,-2.6360598E-1,-7.8823656E-1,-1.2287735E0,2.2879535E-1,-4.674515E-1,-4.5411732E-2,-4.49743E-1,-8.392732E-1,7.146247E-1,-1.3577528E0,-9.0482146E-1,-1.9558875E-2,1.4043766E-2,-4.757657E-2,-9.704235E-4,-4.7867093E-3,4.0599782E-2,-1.8216316E-2,-3.4233756E-2,-1.4353852E-2,-4.7510818E-2,-3.3123407E-3,6.079505E-2,-5.0169896E-2,-7.542841E-2,4.8477862E-2,-5.195353E-2],"categories":[],"categories_nodes":[],"categories_segments":[],"categories_sizes":[],"default_left":[0,0,0,0,0,0,0,0,0,0,0,0,0,0,0,0,0,0,0,0,0,0,0,0,0,0,0,0,0,0,0,0,0],"id":8,"left_children":[1,-1,3,5,7,9,11,13,15,17,19,21,23,25,27,29,31,-1,-1,-1,-1,-1,-1,-1,-1,-1,-1,-1,-1,-1,-1,-1,-1],"loss_changes":[4.55509E2,0E0,1.2661979E2,3.1317255E1,8.15094E0,1.5003985E1,1.83432E1,7.8684654E0,2.7109222E0,8.9289055E0,7.5652757E0,9.1067705E0,4.644661E0,5.370331E0,1.5103164E0,1.9833832E0,8.517771E0,0E0,0E0,0E0,0E0,0E0,0E0,0E0,0E0,0E0,0E0,0E0,0E0,0E0,0E0,0E0,0E0],"parents":[2147483647,0,0,2,2,3,3,4,4,5,5,6,6,7,7,8,8,9,9,10,10,11,11,12,12,13,13,14,14,15,15,16,16],"right_children":[2,-1,4,6,8,10,12,14,16,18,20,22,24,26,28,30,32,-1,-1,-1,-1,-1,-1,-1,-1,-1,-1,-1,-1,-1,-1,-1,-1],"split_conditions":[1E0,7.252241E-2,1.1E1,5E0,4.375E-1,1E0,2.6E1,8E0,1E0,2E0,1E0,1.4E1,9E0,1.9E1,1.3E1,2.7E1,2.2E1,-1.9558875E-2,1.4043766E-2,-4.757657E-2,-9.704235E-4,-4.7867093E-3,4.0599782E-2,-1.8216316E-2,-3.4233756E-2,-1.4353852E-2,-4.7510818E-2,-3.3123407E-3,6.079505E-2,-5.0169896E-2,-7.542841E-2,4.8477862E-2,-5.195353E-2],"split_indices":[3,0,5,5,10,10,2,7,7,6,0,7,5,2,5,2,2,0,0,0,0,0,0,0,0,0,0,0,0,0,0,0,0],"split_type":[0,0,0,0,0,0,0,0,0,0,0,0,0,0,0,0,0,0,0,0,0,0,0,0,0,0,0,0,0,0,0,0,0],"sum_hessian":[1.1248802E3,1.805796E2,9.443006E2,7.57251E2,1.8704964E2,3.0610126E2,4.5114972E2,9.376668E1,9.328296E1,2.721352E2,3.396608E1,2.0826292E2,2.428868E2,9.111402E1,2.6526525E0,6.443668E1,2.8846273E1,2.0584234E1,2.5155095E2,1.5786306E1,1.8179775E1,1.975564E2,1.0706521E1,1.7999493E2,6.2891857E1,1.5843572E1,7.5270454E1,1.3763947E0,1.2762578E0,2.1521961E1,4.2914722E1,1.5121168E0,2.7334156E1],"tree_param":{"num_deleted":"0","num_feature":"12","num_nodes":"33","size_leaf_vector":"1"}},{"base_weights":[1.2823479E-2,-2.6847452E-1,1.353362E0,-1.1811367E-1,-8.708022E-1,1.395114E0,5.722939E-1,1.5609005E-1,-2.2409822E-1,-7.1320957E-1,-1.3717936E0,7.255926E-2,1.0556023E0,5.400425E-2,3.819661E-2,5.512317E-1,-1.059861E-2,-3.8353164E-2,-3.5684144E-1,6.0154907E-2,-8.465723E-1,-4.3881177E-3,-7.1247846E-2,4.239638E-1,1.363517E0,-5.570844E-1,4.399204E-2,3.1723373E-2,-4.208423E-2,2.4611294E-2,-7.321469E-3,-7.326569E-2,-6.1243214E-4,-2.63205E-3,-2.3656145E-2,-3.77015E-2,1.9659232E-2,-3.6390167E-2,-6.589498E-2,3.2657918E-2,-3.0630339E-2,2.3644945E-2,7.030228E-2,-5.9619546E-2,2.6105985E-3],"categories":[],"categories_nodes":[],"categories_segments":[],"categories_sizes":[],"default_left":[0,0,0,0,0,0,0,0,0,0,0,0,0,0,0,0,0,0,0,0,0,0,0,0,0,0,0,0,0,0,0,0,0,0,0,0,0,0,0,0,0,0,0,0,0],"id":9,"left_children":[1,3,5,7,9,11,13,15,17,19,21,-1,23,-1,25,27,29,31,33,35,37,-1,-1,39,41,43,-1,-1,-1,-1,-1,-1,-1,-1,-1,-1,-1,-1,-1,-1,-1,-1,-1,-1,-1],"loss_changes":[4.1889426E2,8.305751E1,5.4848022E0,2.1422745E1,1.3491425E1,1.9365845E0,3.0700924E0,1.3557678E1,1.3083851E1,1.4644928E1,2.7947235E0,0E0,5.1581917E0,0E0,3.8108156E0,7.6136284E0,1.0022377E1,8.270987E0,1.0929405E1,6.1927586E0,5.800537E0,0E0,0E0,3.0412862E0,6.901169E-2,1.8020071E0,0E0,0E0,0E0,0E0,0E0,0E0,0E0,0E0,0E0,0E0,0E0,0E0,0E0,0E0,0E0,0E0,0E0,0E0,0E0],"parents":[2147483647,0,0,1,1,2,2,3,3,4,4,5,5,6,6,7,7,8,8,9,9,10,10,12,12,14,14,15,15,16,16,17,17,18,18,19,19,20,20,23,23,24,24,25,25],"right_children":[2,4,6,8,10,12,14,16,18,20,22,-1,24,-1,26,28,30,32,34,36,38,-1,-1,40,42,44,-1,-1,-1,-1,-1,-1,-1,-1,-1,-1,-1,-1,-1,-1,-1,-1,-1,-1,-1],"split_conditions":[2.9E1,1.1E1,3E0,1E0,1.6E1,4.1E1,7E0,2.3E1,6E0,2E1,1E0,7.255926E-2,1.03E2,5.400425E-2,6E0,7.1E1,5E0,1E0,1.25E-1,9E0,7.6E1,-4.3881177E-3,-7.1247846E-2,3.8E1,4.9E1,4.4E1,4.399204E-2,3.1723373E-2,-4.208423E-2,2.4611294E-2,-7.321469E-3,-7.326569E-2,-6.1243214E-4,-2.63205E-3,-2.3656145E-2,-3.77015E-2,1.9659232E-2,-3.6390167E-2,-6.589498E-2,3.2657918E-2,-3.0630339E-2,2.3644945E-2,7.030228E-2,-5.9619546E-2,2.6105985E-3],"split_indices":[7,5,6,4,5,9,9,2,5,2,9,0,7,0,6,9,9,6,10,9,9,0,0,2,9,9,0,0,0,0,0,0,0,0,0,0,0,0,0,0,0,0,0,0,0],"split_type":[0,0,0,0,0,0,0,0,0,0,0,0,0,0,0,0,0,0,0,0,0,0,0,0,0,0,0,0,0,0,0,0,0,0,0,0,0,0,0,0,0,0,0,0,0],"sum_hessian":[1.1088943E3,9.172242E2,1.9167018E2,7.34952E2,1.8227214E2,1.8119807E2,1.047211E1,2.0474974E2,5.302023E2,1.4049988E2,4.1772266E1,1.5270427E2,2.8493813E1,4.8442216E0,5.627888E0,6.0062477E1,1.4468727E2,2.2152104E2,3.086812E2,2.0745655E1,1.1975423E2,1.7661438E0,4.0006123E1,1.011709E1,1.8376722E1,3.4944332E0,2.133455E0,5.7189537E1,2.8729396E0,3.0214403E1,1.1447287E2,2.9891927E0,2.1853185E2,8.576546E1,2.2291577E2,5.6553674E0,1.5090287E1,9.768332E1,2.2070904E1,8.5880785E0,1.5290116E0,1.3898805E0,1.6986843E1,1.2422043E0,2.252229E0],"tree_param":{"num_deleted":"0","num_feature":"12","num_nodes":"45","size_leaf_vector":"1"}},{"base_weights":[5.9250523E-3,-2.6276568E-1,1.3448837E0,-4.279538E-2,-7.211671E-1,8.065623E-1,1.380149E0,1.0070708E-1,-2.1756071E-1,-6.1104727E-1,-6.699181E-2,-1.383007E-2,9.483572E-1,6.926287E-2,2.0928979E-2,-4.1229182E-1,1.5825604E-1,-1.0935961E0,-1.78699E-1,-6.6877234E-1,2.9265246E-1,-8.7572244E-4,1.1632644E0,3.2723402E-3,-3.6684044E-2,6.7411563E-3,5.841885E-2,-6.0465615E-2,-1.1894349E-2,2.2294885E-2,-1.1530464E-2,-2.0572677E-2,-4.2249896E-2,4.0376674E-2,-2.3443421E-2,6.8190455E-2,2.1121655E-2],"categories":[],"categories_nodes":[],"categories_segments":[],"categories_sizes":[],"default_left":[0,0,0,0,0,0,0,0,0,0,0,0,0,0,0,0,0,0,0,0,0,0,0,0,0,0,0,0,0,0,0,0,0,0,0,0,0],"id":10,"left_children":[1,3,5,7,9,11,13,15,17,19,-1,-1,21,-1,-1,23,25,27,29,31,33,-1,35,-1,-1,-1,-1,-1,-1,-1,-1,-1,-1,-1,-1,-1,-1],"loss_changes":[3.934355E2,9.181261E1,2.356659E0,1.5484442E1,1.92984E1,2.3577785E0,2.5582886E-1,1.0080421E1,9.279381E0,1.3368004E1,0E0,0E0,2.5714378E0,0E0,0E0,5.3443785E0,7.0794344E0,8.635464E-1,8.78189E0,1.0428818E1,6.595797E0,0E0,9.196787E-1,0E0,0E0,0E0,0E0,0E0,0E0,0E0,0E0,0E0,0E0,0E0,0E0,0E0,0E0],"parents":[2147483647,0,0,1,1,2,2,3,3,4,4,5,5,6,6,7,7,8,8,9,9,12,12,15,15,16,16,17,17,18,18,19,19,20,20,22,22],"right_children":[2,4,6,8,10,12,14,16,18,20,-1,-1,22,-1,-1,24,26,28,30,32,34,-1,36,-1,-1,-1,-1,-1,-1,-1,-1,-1,-1,-1,-1,-1,-1],"split_conditions":[2.9E1,9E0,4.8E1,4.3E0,1.6E1,1.8E1,5.8E1,2E0,4.5E0,7E0,-6.699181E-2,-1.383007E-2,-2.6E0,6.926287E-2,2.0928979E-2,1.7E0,7E0,1E1,5E0,2.5E1,9E1,-8.7572244E-4,4E1,3.2723402E-3,-3.6684044E-2,6.7411563E-3,5.841885E-2,-6.0465615E-2,-1.1894349E-2,2.2294885E-2,-1.1530464E-2,-2.0572677E-2,-4.2249896E-2,4.0376674E-2,-2.3443421E-2,6.8190455E-2,2.1121655E-2],"split_indices":[7,5,7,11,5,2,2,6,11,7,0,0,11,0,0,11,5,6,5,2,8,0,2,0,0,0,0,0,0,0,0,0,0,0,0,0,0],"split_type":[0,0,0,0,0,0,0,0,0,0,0,0,0,0,0,0,0,0,0,0,0,0,0,0,0,0,0,0,0,0,0,0,0,0,0,0,0],"sum_hessian":[1.0916056E3,9.0983203E2,1.8177353E2,6.155467E2,2.942853E2,1.264347E1,1.6913005E2,3.3823807E2,2.7730862E2,2.5150623E2,4.277909E1,1.3534935E0,1.1289976E1,1.67798E2,1.3320487E0,3.349501E1,3.0474307E2,1.0626281E1,2.6668234E2,2.3664984E2,1.4856381E1,2.2219987E0,9.067977E0,1.3791125E1,1.9703884E1,2.9894165E2,5.8014107E0,8.996474E0,1.6298069E0,1.9880898E1,2.4680145E2,9.7548096E1,1.3910175E2,8.827496E0,6.0288854E0,6.4744196E0,2.5935578E0],"tree_param":{"num_deleted":"0","num_feature":"12","num_nodes":"37","size_leaf_vector":"1"}},{"base_weights":[1.9778686E-2,1.2757839E0,-2.2995776E-1,1.3590381E0,8.069737E-1,-6.0265854E-2,-9.194195E-1,6.824594E-2,1.9133484E-2,9.6577686E-1,-4.8991713E-1,2.0869291E-1,-1.638938E-1,-7.77307E-1,-6.8172745E-2,1.0452936E0,2.1080682E-1,-3.5875063E-2,1.9131991E-3,2.8772438E-1,-5.170415E-1,-1.4433618E-1,-1.0806826E0,-6.288654E-1,-1.3260728E0,6.456699E-2,3.9210115E-2,-2.5112564E-2,4.6844676E-2,1.1212242E-2,3.888952E-2,-4.9002342E-2,1.6454438E-2,-3.4495972E-3,-1.9896034E-2,-6.3007586E-2,5.5206404E-3,-4.0963203E-2,-1.7672656E-2,-7.019382E-2,1.5961863E-3],"categories":[],"categories_nodes":[],"categories_segments":[],"categories_sizes":[],"default_left":[0,0,0,0,0,0,0,0,0,0,0,0,0,0,0,0,0,0,0,0,0,0,0,0,0,0,0,0,0,0,0,0,0,0,0,0,0,0,0,0,0],"id":11,"left_children":[1,3,5,7,9,11,13,-1,-1,15,17,19,21,23,-1,25,27,-1,-1,29,31,33,35,37,39,-1,-1,-1,-1,-1,-1,-1,-1,-1,-1,-1,-1,-1,-1,-1,-1],"loss_changes":[3.4356107E2,5.9935303E0,1.0684387E2,3.5507202E-1,6.6221733E0,2.0500477E1,1.0323654E1,0E0,0E0,1.3967037E0,4.9872786E-1,1.1887948E1,9.358352E0,1.0487694E1,0E0,5.3661346E-1,2.447981E0,0E0,0E0,5.5874853E0,8.336921E0,9.921158E0,2.475421E0,5.5465393E0,3.0760078E0,0E0,0E0,0E0,0E0,0E0,0E0,0E0,0E0,0E0,0E0,0E0,0E0,0E0,0E0,0E0,0E0],"parents":[2147483647,0,0,1,1,2,2,3,3,4,4,5,5,6,6,9,9,10,10,11,11,12,12,13,13,15,15,16,16,19,19,20,20,21,21,22,22,23,23,24,24],"right_children":[2,4,6,8,10,12,14,-1,-1,16,18,20,22,24,-1,26,28,-1,-1,30,32,34,36,38,40,-1,-1,-1,-1,-1,-1,-1,-1,-1,-1,-1,-1,-1,-1,-1,-1],"split_conditions":[-7E-1,-6.9E0,1.1E1,1.71E2,6.7E1,1E0,1.6E1,6.824594E-2,1.9133484E-2,5E0,4E0,8.5E1,1.5E1,7.3E1,-6.8172745E-2,-8E0,3E1,-3.5875063E-2,1.9131991E-3,7E1,2E0,6.3E1,9.6E1,1.2E1,1.8E2,6.456699E-2,3.9210115E-2,-2.5112564E-2,4.6844676E-2,1.1212242E-2,3.888952E-2,-4.9002342E-2,1.6454438E-2,-3.4495972E-3,-1.9896034E-2,-6.3007586E-2,5.5206404E-3,-4.0963203E-2,-1.7672656E-2,-7.019382E-2,1.5961863E-3],"split_indices":[11,11,5,9,9,4,5,0,0,6,6,9,6,9,0,9,9,0,0,9,3,9,9,6,9,0,0,0,0,0,0,0,0,0,0,0,0,0,0,0,0],"split_type":[0,0,0,0,0,0,0,0,0,0,0,0,0,0,0,0,0,0,0,0,0,0,0,0,0,0,0,0,0,0,0,0,0,0,0,0,0,0,0,0,0],"sum_hessian":[1.0933584E3,1.8065874E2,9.1269965E2,1.5180191E2,2.885682E1,7.333045E2,1.7939516E2,1.504975E2,1.3044133E0,2.593626E1,2.9205592E0,2.0367279E2,5.296317E2,1.3798418E2,4.141098E1,2.3116934E1,2.8193257E0,1.7905877E0,1.1299715E0,1.8421552E2,1.9457272E1,5.1970245E2,9.929238E0,1.1029521E2,2.7688967E1,9.869868E0,1.3247066E1,1.5779582E0,1.2413675E0,1.6438046E2,1.9835052E1,1.24734745E1,6.983796E0,4.0164038E2,1.1806208E2,8.578667E0,1.350572E0,6.404488E1,4.6250328E1,2.6156593E1,1.5323741E0],"tree_param":{"num_deleted":"0","num_feature":"12","num_nodes":"41","size_leaf_vector":"1"}},{"base_weights":[3.4968257E-2,-1.9554308E-1,1.2831947E0,-4.6686802E-2,-8.286596E-1,1.3579557E0,9.60421E-1,2.0917659E-1,-1.508801E-1,-6.856448E-1,-1.2728428E0,6.4895976E-1,6.864708E-2,2.585326E-2,1.1355903E0,5.126656E-1,1.115165E-1,-1.2829287E-1,-1.1208322E0,-5.668087E-1,-1.2381722E0,-5.763147E-3,-6.6275954E-2,3.986086E-3,5.0834548E-2,-6.827888E-2,6.8058646E-1,6.998809E-1,6.433187E-2,-3.488164E-2,2.918377E-2,3.8048793E-3,4.5655217E-2,-9.965511E-3,3.2477712E-3,-6.4669415E-2,1.5183519E-2,-3.6060456E-2,-5.7850964E-3,-6.655412E-2,8.949721E-3,-2.538015E-2,5.8891512E-2,5.067261E-2,-1.8991051E-2],"categories":[],"categories_nodes":[],"categories_segments":[],"categories_sizes":[],"default_left":[0,0,0,0,0,0,0,0,0,0,0,0,0,0,0,0,0,0,0,0,0,0,0,0,0,0,0,0,0,0,0,0,0,0,0,0,0,0,0,0,0,0,0,0,0],"id":12,"left_children":[1,3,5,7,9,11,13,15,17,19,21,23,-1,25,27,29,31,33,35,37,39,-1,-1,-1,-1,-1,41,43,-1,-1,-1,-1,-1,-1,-1,-1,-1,-1,-1,-1,-1,-1,-1,-1,-1],"loss_changes":[3.16756E2,8.755116E1,2.8367615E0,2.0120363E1,1.036232E1,5.6378174E-1,5.8130913E0,6.4182634E0,1.1600512E1,8.224915E0,2.4026184E0,9.091548E-1,0E0,6.993677E0,1.0759773E0,4.954502E0,4.659602E0,7.2179146E0,3.359623E0,7.838173E0,3.2956772E0,0E0,0E0,0E0,0E0,0E0,3.666594E0,3.7447605E0,0E0,0E0,0E0,0E0,0E0,0E0,0E0,0E0,0E0,0E0,0E0,0E0,0E0,0E0,0E0,0E0,0E0],"parents":[2147483647,0,0,1,1,2,2,3,3,4,4,5,5,6,6,7,7,8,8,9,9,10,10,11,11,13,13,14,14,15,15,16,16,17,17,18,18,19,19,20,20,26,26,27,27],"right_children":[2,4,6,8,10,12,14,16,18,20,22,24,-1,26,28,30,32,34,36,38,40,-1,-1,-1,-1,-1,42,44,-1,-1,-1,-1,-1,-1,-1,-1,-1,-1,-1,-1,-1,-1,-1,-1,-1],"split_conditions":[3.4E1,1.1E1,3.1E1,1E0,1.6E1,4.8E1,6.8E1,5E0,1.5E1,7.6E1,1E0,4E0,6.864708E-2,1E0,1.03E2,2E0,1.3E1,9E0,1.22E2,1.4E1,1.8E2,-5.763147E-3,-6.6275954E-2,3.986086E-3,5.0834548E-2,-6.827888E-2,4.7E1,9.4E1,6.433187E-2,-3.488164E-2,2.918377E-2,3.8048793E-3,4.5655217E-2,-9.965511E-3,3.2477712E-3,-6.4669415E-2,1.5183519E-2,-3.6060456E-2,-5.7850964E-3,-6.655412E-2,8.949721E-3,-2.538015E-2,5.8891512E-2,5.067261E-2,-1.8991051E-2],"split_indices":[7,5,9,4,5,7,7,9,6,9,9,6,0,0,7,6,6,6,9,6,9,0,0,0,0,0,9,7,0,0,0,0,0,0,0,0,0,0,0,0,0,0,0,0,0],"split_type":[0,0,0,0,0,0,0,0,0,0,0,0,0,0,0,0,0,0,0,0,0,0,0,0,0,0,0,0,0,0,0,0,0,0,0,0,0,0,0,0,0,0,0,0,0],"sum_hessian":[1.099006E3,9.2840063E2,1.7060542E2,7.525397E2,1.7586093E2,1.3591707E2,3.468836E1,2.1747856E2,5.350611E2,1.349533E2,4.090764E1,3.7304401E0,1.3218661E2,5.6566157E0,2.9031742E1,5.1910793E1,1.6556776E2,5.239912E2,1.1069888E1,1.12732864E2,2.2220436E1,1.9192678E0,3.8988373E1,1.941635E0,1.7888052E0,1.462605E0,4.1940107E0,8.92378E0,2.0107962E1,2.3878329E0,4.952296E1,1.5961017E2,5.9575925E0,3.831537E2,1.4083754E2,9.955926E0,1.1139617E0,8.3540634E1,2.9192226E1,2.091029E1,1.3101468E0,1.2311887E0,2.962822E0,6.9629364E0,1.960844E0],"tree_param":{"num_deleted":"0","num_feature":"12","num_nodes":"45","size_leaf_vector":"1"}},{"base_weights":[1.0883745E-2,-2.1322833E-1,1.3080646E0,-6.496079E-2,-7.358053E-1,1.3238614E0,7.1384156E-1,4.8174965E-1,-1.248502E-1,-5.886084E-1,-1.0893012E0,6.647781E-2,1.7581513E-2,-2.4369402E-2,5.516058E-2,-2.2265972E-1,6.283218E-1,3.7140238E-1,-1.7640677E-1,-8.155308E-1,-3.2031965E-1,-8.026379E-1,-6.8745285E-2,4.5570742E-2,-3.3006925E-2,-5.6577034E-2,3.427799E-2,-1.4282407E-2,3.560142E-2,-2.7092828E-3,-1.8026E-2,-1.7227678E-2,-5.4562416E-2,-8.823831E-3,-4.1732248E-2,-6.578796E-2,-2.6524311E-2],"categories":[],"categories_nodes":[],"categories_segments":[],"categories_sizes":[],"default_left":[0,0,0,0,0,0,0,0,0,0,0,0,0,0,0,0,0,0,0,0,0,0,0,0,0,0,0,0,0,0,0,0,0,0,0,0,0],"id":13,"left_children":[1,3,5,7,9,11,13,15,17,19,21,-1,-1,-1,-1,23,25,27,29,31,33,35,-1,-1,-1,-1,-1,-1,-1,-1,-1,-1,-1,-1,-1,-1,-1],"loss_changes":[3.153806E2,7.162804E1,5.5511475E-1,2.3690636E1,9.992378E0,3.8796997E-1,3.4884155E0,7.5179653E0,1.6727901E1,8.6551285E0,3.7189941E0,0E0,0E0,0E0,0E0,7.074527E0,6.7605534E0,1.3993169E1,1.3271349E1,9.843487E0,4.939567E0,3.7427425E0,0E0,0E0,0E0,0E0,0E0,0E0,0E0,0E0,0E0,0E0,0E0,0E0,0E0,0E0,0E0],"parents":[2147483647,0,0,1,1,2,2,3,3,4,4,5,5,6,6,7,7,8,8,9,9,10,10,15,15,16,16,17,17,18,18,19,19,20,20,21,21],"right_children":[2,4,6,8,10,12,14,16,18,20,22,-1,-1,-1,-1,24,26,28,30,32,34,36,-1,-1,-1,-1,-1,-1,-1,-1,-1,-1,-1,-1,-1,-1,-1],"split_conditions":[5.8E1,8.7E0,1.22E2,2E0,1.25E1,5.8E1,9.5E1,1E0,1.9E1,1.2E1,2.7E1,6.647781E-2,1.7581513E-2,-2.4369402E-2,5.516058E-2,3.4E0,2E0,1E0,5.3E0,9.5E0,1.6E1,1.5E1,-6.8745285E-2,4.5570742E-2,-3.3006925E-2,-5.6577034E-2,3.427799E-2,-1.4282407E-2,3.560142E-2,-2.7092828E-3,-1.8026E-2,-1.7227678E-2,-5.4562416E-2,-8.823831E-3,-4.1732248E-2,-6.578796E-2,-2.6524311E-2],"split_indices":[7,11,9,9,11,2,7,7,2,6,2,0,0,0,0,11,6,7,11,11,6,6,0,0,0,0,0,0,0,0,0,0,0,0,0,0,0],"split_type":[0,0,0,0,0,0,0,0,0,0,0,0,0,0,0,0,0,0,0,0,0,0,0,0,0,0,0,0,0,0,0,0,0,0,0,0,0],"sum_hessian":[1.0828893E3,9.24074E2,1.5881532E2,7.207144E2,2.0335954E2,1.5350662E2,5.308702E0,7.046044E1,6.5025397E2,1.454562E2,5.7903347E1,1.5224728E2,1.2593277E0,1.2379174E0,4.0707846E0,1.2046622E1,5.8413822E1,6.061421E1,5.896398E2,7.769821E1,6.7757996E1,3.079974E1,2.710361E1,3.0518882E0,8.994735E0,1.2487959E0,5.7165028E1,2.0749964E1,3.9864246E1,3.5516348E2,2.3447627E2,2.9520798E1,4.8177414E1,5.399903E1,1.3758963E1,9.345274E0,2.1454464E1],"tree_param":{"num_deleted":"0","num_feature":"12","num_nodes":"37","size_leaf_vector":"1"}},{"base_weights":[-2.5638146E-2,-2.4037679E-1,1.2419451E0,-9.858869E-2,-8.593989E-1,6.604501E-2,8.692976E-1,4.426079E-2,-3.477819E-1,-5.7570595E-1,-1.0693669E0,4.153668E-1,6.059417E-2,2.0251778E-1,-1.21626355E-1,-6.413448E-1,-1.854079E-2,-6.5200543E-1,6.7618865E-1,-8.8390446E-1,-1.3421161E0,6.083184E-1,-3.9823804E-2,-1.0302902E-3,1.9429602E-2,1.1563676E-2,-1.0893422E-2,-2.7469724E-2,-6.191823E-2,9.570149E-3,-1.1961335E-2,-4.9743623E-2,-2.3051554E-2,-1.1585462E-2,6.0938265E-2,-5.166762E-2,3.909023E-3,2.2103982E-3,-7.0134304E-2,-2.2936968E-2,4.1443773E-2],"categories":[],"categories_nodes":[],"categories_segments":[],"categories_sizes":[],"default_left":[0,0,0,0,0,0,0,0,0,0,0,0,0,0,0,0,0,0,0,0,0,0,0,0,0,0,0,0,0,0,0,0,0,0,0,0,0,0,0,0,0],"id":14,"left_children":[1,3,5,7,9,-1,11,13,15,17,19,21,-1,23,25,27,29,31,33,35,37,39,-1,-1,-1,-1,-1,-1,-1,-1,-1,-1,-1,-1,-1,-1,-1,-1,-1,-1,-1],"loss_changes":[2.905071E2,8.000972E1,3.4008331E0,2.6485846E1,9.50692E0,0E0,4.155159E0,1.2456583E1,2.6187305E1,7.551819E0,3.694725E0,3.8529992E0,0E0,1.0085255E1,7.924054E0,7.1844406E0,6.013204E0,4.1692333E0,2.6308835E0,8.760254E0,3.1794891E0,3.4383817E0,0E0,0E0,0E0,0E0,0E0,0E0,0E0,0E0,0E0,0E0,0E0,0E0,0E0,0E0,0E0,0E0,0E0,0E0,0E0],"parents":[2147483647,0,0,1,1,2,2,3,3,4,4,6,6,7,7,8,8,9,9,10,10,11,11,13,13,14,14,15,15,16,16,17,17,18,18,19,19,20,20,21,21],"right_children":[2,4,6,8,10,-1,12,14,16,18,20,22,-1,24,26,28,30,32,34,36,38,40,-1,-1,-1,-1,-1,-1,-1,-1,-1,-1,-1,-1,-1,-1,-1,-1,-1,-1,-1],"split_conditions":[3.4E1,9.2E0,3.1E1,5.7E0,2.5E1,6.604501E-2,1.03E2,4.375E-1,9E0,4E0,5.3E1,9.4E1,6.059417E-2,2E0,1.8E0,1E0,2.7E1,1.8E1,9.6E0,4.1E1,9.5E0,4.2E1,-3.9823804E-2,-1.0302902E-3,1.9429602E-2,1.1563676E-2,-1.0893422E-2,-2.7469724E-2,-6.191823E-2,9.570149E-3,-1.1961335E-2,-4.9743623E-2,-2.3051554E-2,-1.1585462E-2,6.0938265E-2,-5.166762E-2,3.909023E-3,2.2103982E-3,-7.0134304E-2,-2.2936968E-2,4.1443773E-2],"split_indices":[7,11,9,11,2,0,7,10,6,7,9,7,0,7,11,10,2,9,11,9,11,9,0,0,0,0,0,0,0,0,0,0,0,0,0,0,0,0,0,0,0],"split_type":[0,0,0,0,0,0,0,0,0,0,0,0,0,0,0,0,0,0,0,0,0,0,0,0,0,0,0,0,0,0,0,0,0,0,0,0,0,0,0,0,0],"sum_hessian":[1.0651628E3,9.1154956E2,1.5361333E2,7.426122E2,1.6893735E2,1.2465688E2,2.895645E1,4.7254764E2,2.7006454E2,7.344536E1,9.549199E1,1.3405899E1,1.5550551E1,2.4172255E2,2.308251E2,1.4226666E2,1.2779788E2,6.967787E1,3.7674868E0,5.9365623E1,3.612636E1,1.1994187E1,1.4117118E0,1.1032271E2,1.3139984E2,4.9160534E1,1.8166457E2,1.2494363E2,1.7323034E1,6.556091E1,6.223697E1,2.3420416E1,4.6257458E1,1.6236188E0,2.143868E0,5.1319675E1,8.04595E0,1.5236315E0,3.460273E1,1.8695186E0,1.0124668E1],"tree_param":{"num_deleted":"0","num_feature":"12","num_nodes":"41","size_leaf_vector":"1"}},{"base_weights":[2.7365678E-3,-1.9630307E-1,1.2297466E0,-8.295371E-2,-6.8621343E-1,6.51506E-2,8.378504E-1,-1.3383137E-1,3.3180135E-1,-4.0771505E-1,-8.846946E-1,2.5387305E-1,1.1896316E0,6.203194E-2,-2.3691641E-1,4.6461466E-1,-8.169586E-1,-1.24138154E-1,-7.219563E-1,-9.1907287E-1,2.2117218E-2,7.238731E-1,-6.095286E-1,1.3549176E-2,6.2195342E-2,7.8074583E-3,-2.8097102E-2,-1.9451004E-2,3.9784373E-3,1.6155694E-2,6.475934E-2,-5.843082E-2,2.5147474E-3,-3.8149536E-2,1.0094542E-2,9.603645E-3,-4.2836748E-2,-3.6744144E-2,-5.9257973E-2,4.467258E-2,-9.250211E-3,3.9723396E-2,-6.621592E-2],"categories":[],"categories_nodes":[],"categories_segments":[],"categories_sizes":[],"default_left":[0,0,0,0,0,0,0,0,0,0,0,0,0,0,0,0,0,0,0,0,0,0,0,0,0,0,0,0,0,0,0,0,0,0,0,0,0,0,0,0,0,0,0],"id":15,"left_children":[1,3,5,7,9,-1,11,13,15,17,19,21,23,25,27,29,31,33,35,37,-1,39,41,-1,-1,-1,-1,-1,-1,-1,-1,-1,-1,-1,-1,-1,-1,-1,-1,-1,-1,-1,-1],"loss_changes":[2.6072287E2,5.0952015E1,3.1865234E0,1.5809748E1,9.172104E0,0E0,5.0946884E0,1.3465438E1,1.2878289E1,6.470545E0,4.9613266E0,4.9646697E0,4.6681023E-1,1.3624929E1,2.1051977E1,8.286544E0,2.7585025E0,8.465515E0,4.4409103E0,3.9145737E0,0E0,1.3482132E0,5.5400605E0,0E0,0E0,0E0,0E0,0E0,0E0,0E0,0E0,0E0,0E0,0E0,0E0,0E0,0E0,0E0,0E0,0E0,0E0,0E0,0E0],"parents":[2147483647,0,0,1,1,2,2,3,3,4,4,6,6,7,7,8,8,9,9,10,10,11,11,12,12,13,13,14,14,15,15,16,16,17,17,18,18,19,19,21,21,22,22],"right_children":[2,4,6,8,10,-1,12,14,16,18,20,22,24,26,28,30,32,34,36,38,-1,40,42,-1,-1,-1,-1,-1,-1,-1,-1,-1,-1,-1,-1,-1,-1,-1,-1,-1,-1,-1,-1],"split_conditions":[5.8E1,9.2E0,4.1E1,1.4E1,2.5E1,6.51506E-2,1.03E2,3.9E0,8.3E1,1.14E1,8E0,3.1E1,4.4E1,3.8E1,9E0,4E0,1.45E2,1.8E1,4E0,5.3E1,2.2117218E-2,9.2E1,6.4E1,1.3549176E-2,6.2195342E-2,7.8074583E-3,-2.8097102E-2,-1.9451004E-2,3.9784373E-3,1.6155694E-2,6.475934E-2,-5.843082E-2,2.5147474E-3,-3.8149536E-2,1.0094542E-2,9.603645E-3,-4.2836748E-2,-3.6744144E-2,-5.9257973E-2,4.467258E-2,-9.250211E-3,3.9723396E-2,-6.621592E-2],"split_indices":[7,11,9,7,2,0,7,11,9,11,7,2,9,2,6,11,9,9,9,9,0,9,7,0,0,0,0,0,0,0,0,0,0,0,0,0,0,0,0,0,0,0,0],"split_type":[0,0,0,0,0,0,0,0,0,0,0,0,0,0,0,0,0,0,0,0,0,0,0,0,0,0,0,0,0,0,0,0,0,0,0,0,0,0,0,0,0,0,0],"sum_hessian":[1.0655695E3,9.1756635E2,1.4800317E2,7.4611E2,1.7145633E2,1.2273317E2,2.5269997E1,6.6518915E2,8.092088E1,7.261747E1,9.883887E1,1.0147022E1,1.5122975E1,2.2951154E2,4.3567758E2,7.306864E1,7.8522434E0,3.890444E1,3.3713024E1,9.664267E1,2.1962004E0,6.675021E0,3.4720013E0,1.1779578E0,1.3945018E1,2.0008191E2,2.9429636E1,2.941021E2,1.4157549E2,6.361916E1,9.449481E0,5.339619E0,2.512624E0,1.2692765E1,2.6211678E1,4.2777147E0,2.9435308E1,5.9333057E1,3.730961E1,5.6397314E0,1.0352896E0,1.1337023E0,2.338299E0],"tree_param":{"num_deleted":"0","num_feature":"12","num_nodes":"43","size_leaf_vector":"1"}},{"base_weights":[-1.8459098E-2,-2.2330253E-1,1.201981E0,-7.946115E-3,-5.366646E-1,6.373795E-2,8.4527814E-1,1.9272004E-1,-1.5091456E-1,-4.488594E-1,-1.0631773E0,-1.9278261E-1,1.071191E0,6.830576E-2,4.8085508E-1,4.54124E-1,-2.498689E-1,-3.7496978E-1,-1.0109922E0,1.9879848E-2,-1.1022776E0,1.8832059E-1,-3.440549E-2,1.1380479E0,1.2468632E-3,-1.3791467E-2,2.0415034E-2,-6.501089E-2,2.743907E-2,4.1616652E-2,3.7124907E-3,-1.2463065E-3,-1.8358095E-2,-1.6755277E-2,-5.5716563E-2,-3.599022E-2,-6.550468E-2,1.5238591E-2,-5.700287E-2,-2.7899047E-2,3.4007244E-2,5.8475792E-2,1.7035196E-2],"categories":[],"categories_nodes":[],"categories_segments":[],"categories_sizes":[],"default_left":[0,0,0,0,0,0,0,0,0,0,0,0,0,0,0,0,0,0,0,0,0,0,0,0,0,0,0,0,0,0,0,0,0,0,0,0,0,0,0,0,0,0,0],"id":16,"left_children":[1,3,5,7,9,-1,11,13,15,17,19,21,23,25,27,29,31,33,35,-1,37,39,-1,41,-1,-1,-1,-1,-1,-1,-1,-1,-1,-1,-1,-1,-1,-1,-1,-1,-1,-1,-1],"loss_changes":[2.6158896E2,6.0455097E1,2.8265228E0,1.5291558E1,1.6392342E1,0E0,6.8788185E0,7.91741E0,1.874674E1,1.2682899E1,3.3754845E0,1.2495186E0,1.6167755E0,1.837226E1,8.785006E0,6.274253E0,7.065027E0,7.865505E0,2.1875648E0,0E0,3.0239296E0,1.8984005E0,0E0,1.55653E-1,0E0,0E0,0E0,0E0,0E0,0E0,0E0,0E0,0E0,0E0,0E0,0E0,0E0,0E0,0E0,0E0,0E0,0E0,0E0],"parents":[2147483647,0,0,1,1,2,2,3,3,4,4,6,6,7,7,8,8,9,9,10,10,11,11,12,12,13,13,14,14,15,15,16,16,17,17,18,18,20,20,21,21,23,23],"right_children":[2,4,6,8,10,-1,12,14,16,18,20,22,24,26,28,30,32,34,36,-1,38,40,-1,42,-1,-1,-1,-1,-1,-1,-1,-1,-1,-1,-1,-1,-1,-1,-1,-1,-1,-1,-1],"split_conditions":[3.4E1,6.6E0,3.1E1,2.5E1,1.5E1,6.373795E-2,6.8E1,2E0,5E0,1E0,1.07E1,1E0,4.2E1,6E0,2.6E0,2.4E0,4E0,4.5E1,1E0,1.9879848E-2,1E0,4.7E1,-3.440549E-2,1.71E2,1.2468632E-3,-1.3791467E-2,2.0415034E-2,-6.501089E-2,2.743907E-2,4.1616652E-2,3.7124907E-3,-1.2463065E-3,-1.8358095E-2,-1.6755277E-2,-5.5716563E-2,-3.599022E-2,-6.550468E-2,1.5238591E-2,-5.700287E-2,-2.7899047E-2,3.4007244E-2,5.8475792E-2,1.7035196E-2],"split_indices":[7,11,9,2,5,0,7,4,9,10,11,1,2,7,11,11,5,2,1,0,4,9,0,9,0,0,0,0,0,0,0,0,0,0,0,0,0,0,0,0,0,0,0],"split_type":[0,0,0,0,0,0,0,0,0,0,0,0,0,0,0,0,0,0,0,0,0,0,0,0,0,0,0,0,0,0,0,0,0,0,0,0,0,0,0,0,0,0,0],"sum_hessian":[1.0442859E3,8.948995E2,1.493864E2,5.309987E2,3.6390073E2,1.21934395E2,2.7452003E1,2.2077612E2,3.1022263E2,3.1347568E2,5.0425037E1,4.932769E0,2.2519234E1,1.5505971E2,6.5716415E1,4.310087E1,2.6712177E2,2.7853116E2,3.494451E1,1.0755126E0,4.9349525E1,3.138117E0,1.794652E0,2.1084192E1,1.435043E0,7.715446E1,7.790526E1,1.7477478E0,6.3968666E1,2.1000923E1,2.2099943E1,9.196503E1,1.7515672E2,2.6566074E2,1.287043E1,1.9432611E1,1.5511901E1,1.1056083E0,4.8243916E1,1.1931303E0,1.9449867E0,1.9834635E1,1.2495564E0],"tree_param":{"num_deleted":"0","num_feature":"12","num_nodes":"43","size_leaf_vector":"1"}},{"base_weights":[-4.4883783E-3,-2.0009908E-1,1.1494756E0,-1.4095029E-2,-4.954082E-1,1.1988033E0,4.5104265E-1,3.523024E-2,-4.4335282E-1,-3.950053E-1,-1.0824648E0,6.2948875E-2,9.1385156E-1,-6.626411E-2,8.2665193E-1,1.1739878E-1,-1.5547141E-1,-6.517279E-1,5.14845E-1,-5.4831195E-1,-1.596658E-1,-1.1598312E0,-8.751524E-2,3.840652E-3,1.0669901E0,-2.9922336E-2,2.678717E-1,9.982246E-1,-1.7039141E-3,2.3636045E-2,3.4504228E-3,-1.0602838E-2,3.612155E-2,-7.199207E-2,-2.6277518E-2,3.7391555E-2,-1.5182291E-2,-1.4945753E-2,-4.071478E-2,-1.4470267E-2,1.6616426E-2,5.832011E-3,-6.0411032E-2,4.6684373E-2,-4.7507655E-2,2.9094243E-2,-2.5520457E-2,5.83161E-2,2.5509999E-3,-8.268747E-3,2.3124324E-2,6.109872E-2,1.4311783E-2],"categories":[],"categories_nodes":[],"categories_segments":[],"categories_sizes":[],"default_left":[0,0,0,0,0,0,0,0,0,0,0,0,0,0,0,0,0,0,0,0,0,0,0,0,0,0,0,0,0,0,0,0,0,0,0,0,0,0,0,0,0,0,0,0,0,0,0,0,0,0,0,0,0],"id":17,"left_children":[1,3,5,7,9,11,13,15,17,19,21,-1,23,25,27,29,31,33,35,37,39,41,43,45,47,-1,49,51,-1,-1,-1,-1,-1,-1,-1,-1,-1,-1,-1,-1,-1,-1,-1,-1,-1,-1,-1,-1,-1,-1,-1,-1,-1],"loss_changes":[2.3431854E2,4.874664E1,4.642929E0,1.1567813E1,1.9788246E1,1.2488403E0,2.2948437E0,7.701044E0,1.1577914E1,1.0536316E1,3.7100906E0,0E0,3.904251E0,1.1872861E0,1.0313225E0,5.868841E0,7.50887E0,3.886263E0,2.251551E0,1.1557392E1,7.6004553E0,2.9737587E0,4.987161E0,1.7961786E0,2.3627415E0,0E0,4.33867E-1,5.525193E-1,0E0,0E0,0E0,0E0,0E0,0E0,0E0,0E0,0E0,0E0,0E0,0E0,0E0,0E0,0E0,0E0,0E0,0E0,0E0,0E0,0E0,0E0,0E0,0E0,0E0],"parents":[2147483647,0,0,1,1,2,2,3,3,4,4,5,5,6,6,7,7,8,8,9,9,10,10,12,12,13,13,14,14,15,15,16,16,17,17,18,18,19,19,20,20,21,21,22,22,23,23,24,24,26,26,27,27],"right_children":[2,4,6,8,10,12,14,16,18,20,22,-1,24,26,28,30,32,34,36,38,40,42,44,46,48,-1,50,52,-1,-1,-1,-1,-1,-1,-1,-1,-1,-1,-1,-1,-1,-1,-1,-1,-1,-1,-1,-1,-1,-1,-1,-1,-1],"split_conditions":[2.9E1,8E0,3E0,1E0,1.5E1,3.1E1,2.5E1,6E0,4E1,1E0,2E0,6.2948875E-2,7.1E1,3.4E1,3.7E1,1.9E1,1.3E1,2.4E1,8E0,4.375E-1,1.3E1,1E0,1.25E-1,6.4E1,4.2E1,-2.9922336E-2,1.8E1,4E1,-1.7039141E-3,2.3636045E-2,3.4504228E-3,-1.0602838E-2,3.612155E-2,-7.199207E-2,-2.6277518E-2,3.7391555E-2,-1.5182291E-2,-1.4945753E-2,-4.071478E-2,-1.4470267E-2,1.6616426E-2,5.832011E-3,-6.0411032E-2,4.6684373E-2,-4.7507655E-2,2.9094243E-2,-2.5520457E-2,5.83161E-2,2.5509999E-3,-8.268747E-3,2.3124324E-2,6.109872E-2,1.4311783E-2],"split_indices":[7,5,6,10,5,9,2,5,2,7,7,0,7,7,7,2,7,2,6,10,6,9,10,7,2,0,2,2,0,0,0,0,0,0,0,0,0,0,0,0,0,0,0,0,0,0,0,0,0,0,0,0,0],"split_type":[0,0,0,0,0,0,0,0,0,0,0,0,0,0,0,0,0,0,0,0,0,0,0,0,0,0,0,0,0,0,0,0,0,0,0,0,0,0,0,0,0,0,0,0,0,0,0,0,0,0,0,0,0],"sum_hessian":[1.0360394E3,8.8658014E2,1.4945935E2,5.44603E2,3.419771E2,1.3893076E2,1.0528594E1,4.8929672E2,5.5306313E1,2.9346014E2,4.8516945E1,1.1188532E2,2.7045425E1,4.775346E0,5.753248E0,3.4222498E2,1.4707175E2,4.569012E1,9.616192E0,1.768956E2,1.1656456E2,4.4862747E1,3.6541986E0,4.043342E0,2.3002083E1,1.5367365E0,3.2386093E0,4.6638446E0,1.0894037E0,3.9969166E1,3.022558E2,1.3887874E2,8.193002E0,4.8686967E0,4.0821423E1,7.552639E0,2.0635533E0,9.239046E1,8.450514E1,9.256644E1,2.3998121E1,1.5870595E0,4.327569E1,1.6355952E0,2.0186033E0,1.841677E0,2.201665E0,2.0818645E1,2.1834383E0,1.0504246E0,2.1881847E0,3.0036383E0,1.6602064E0],"tree_param":{"num_deleted":"0","num_feature":"12","num_nodes":"53","size_leaf_vector":"1"}},{"base_weights":[1.9268503E-2,1.1494478E0,-1.6042683E-1,1.2100669E0,6.9928145E-1,-2.45356E-2,-6.037215E-1,2.8696886E-1,6.1323196E-2,-4.8709586E-2,5.861774E-2,2.2695015E-1,-1.337446E-1,-3.4786704E-1,-8.629076E-1,-2.029282E-2,4.3822303E-2,3.2895312E-1,-6.339257E-2,3.1302565E-1,-4.180014E-1,-2.7511308E-1,-3.7432737E-3,-5.4646295E-1,2.4530557E-1,-4.9924466E-1,-1.0890015E0,2.866503E-2,-2.3779925E-2,2.6343614E-2,9.144754E-3,-4.0880386E-2,2.2114787E-2,-3.35424E-2,-9.385216E-3,1.5915394E-2,-6.8188957E-3,-1.9137276E-4,-3.2899056E-2,2.7920857E-2,-5.866911E-2,-5.4467715E-2,-1.1158914E-2,7.6745066E-4,-5.5954736E-2],"categories":[],"categories_nodes":[],"categories_segments":[],"categories_sizes":[],"default_left":[0,0,0,0,0,0,0,0,0,0,0,0,0,0,0,0,0,0,0,0,0,0,0,0,0,0,0,0,0,0,0,0,0,0,0,0,0,0,0,0,0,0,0,0,0],"id":18,"left_children":[1,3,5,7,9,11,13,15,-1,17,-1,19,21,23,25,-1,-1,27,-1,29,31,33,35,37,39,41,43,-1,-1,-1,-1,-1,-1,-1,-1,-1,-1,-1,-1,-1,-1,-1,-1,-1,-1],"loss_changes":[2.1273618E2,3.0752258E0,5.443596E1,1.5442352E0,6.9300823E0,1.9059544E1,1.3760666E1,1.781821E0,0E0,4.3238425E0,0E0,1.1797349E1,8.88868E0,1.2901213E1,8.061356E0,0E0,0E0,1.7023277E0,0E0,5.079071E0,9.015528E0,7.889145E0,1.0850382E1,4.9296017E0,1.3037207E1,6.593915E0,2.133751E0,0E0,0E0,0E0,0E0,0E0,0E0,0E0,0E0,0E0,0E0,0E0,0E0,0E0,0E0,0E0,0E0,0E0,0E0],"parents":[2147483647,0,0,1,1,2,2,3,3,4,4,5,5,6,6,7,7,9,9,11,11,12,12,13,13,14,14,17,17,19,19,20,20,21,21,22,22,23,23,24,24,25,25,26,26],"right_children":[2,4,6,8,10,12,14,16,-1,18,-1,20,22,24,26,-1,-1,28,-1,30,32,34,36,38,40,42,44,-1,-1,-1,-1,-1,-1,-1,-1,-1,-1,-1,-1,-1,-1,-1,-1,-1,-1],"split_conditions":[1E0,5.7E1,1E1,3.4E1,1.03E2,1E0,4.375E-1,2.5E1,6.1323196E-2,3.5E1,5.861774E-2,8.4E1,2E0,2.8E1,1.2E1,-2.029282E-2,4.3822303E-2,1.35E2,-6.339257E-2,2.4E1,1.45E2,2.1E1,2.3E1,1.9E1,7.3E1,8.3E0,9E0,2.866503E-2,-2.3779925E-2,2.6343614E-2,9.144754E-3,-4.0880386E-2,2.2114787E-2,-3.35424E-2,-9.385216E-3,1.5915394E-2,-6.8188957E-3,-1.9137276E-4,-3.2899056E-2,2.7920857E-2,-5.866911E-2,-5.4467715E-2,-1.1158914E-2,7.6745066E-4,-5.5954736E-2],"split_indices":[5,9,5,7,7,4,10,2,0,2,0,9,4,9,5,0,0,9,0,2,9,2,2,2,9,11,11,0,0,0,0,0,0,0,0,0,0,0,0,0,0,0,0,0,0],"split_type":[0,0,0,0,0,0,0,0,0,0,0,0,0,0,0,0,0,0,0,0,0,0,0,0,0,0,0,0,0,0,0,0,0,0,0,0,0,0,0,0,0,0,0,0,0],"sum_hessian":[1.0455999E3,1.4270041E2,9.028994E2,1.24277245E2,1.8423166E1,6.918648E2,2.1103459E2,2.491903E0,1.2178534E2,7.485169E0,1.0937997E1,2.0915224E2,4.8271255E2,1.07378494E2,1.03656105E2,1.2887294E0,1.2031736E0,6.272321E0,1.2128475E0,1.8497946E2,2.4172785E1,2.307116E2,2.5200096E2,8.05042E1,2.6874292E1,4.096833E1,6.2687775E1,5.0316157E0,1.2407056E0,6.882649E1,1.1615297E2,1.6539734E1,7.633051E0,4.053199E1,1.901796E2,7.3101875E1,1.7889908E2,1.3900444E1,6.660376E1,2.2512135E1,4.362157E0,1.2118427E1,2.8849903E1,1.6759082E0,6.1011864E1],"tree_param":{"num_deleted":"0","num_feature":"12","num_nodes":"45","size_leaf_vector":"1"}},{"base_weights":[1.633773E-2,1.0894809E0,-1.6043238E-1,1.1597208E0,4.2064974E-1,-6.1738905E-2,-7.616499E-1,6.1563373E-2,8.363139E-1,-2.4356479E-2,5.2955985E-1,5.9312984E-2,-1.9150811E-1,-3.744644E-1,-1.0607861E0,5.657906E-2,3.1137836E-1,-3.8676772E-1,7.336701E-1,8.187593E-2,-1.0294348E0,4.379029E-2,-2.6770514E-1,-1.946775E-1,-8.8368726E-1,-3.4468815E-1,-1.083827E0,3.672636E-2,-1.3353698E-2,3.590484E-2,-6.1579037E-2,4.5749832E-2,3.718111E-3,-5.093325E-2,4.895083E-3,-6.54545E-2,2.1688964E-2,-3.209522E-2,6.508364E-3,-5.749272E-2,-1.1561537E-2,-2.0697115E-2,2.4809957E-2,-2.516129E-2,-5.7911843E-2,-4.4231977E-2,2.2272827E-2,-3.9560113E-2,-5.8483597E-2],"categories":[],"categories_nodes":[],"categories_segments":[],"categories_sizes":[],"default_left":[0,0,0,0,0,0,0,0,0,0,0,0,0,0,0,0,0,0,0,0,0,0,0,0,0,0,0,0,0,0,0,0,0,0,0,0,0,0,0,0,0,0,0,0,0,0,0,0,0],"id":19,"left_children":[1,3,5,7,9,11,13,-1,15,-1,17,19,21,23,25,-1,27,29,31,33,35,37,39,41,43,45,47,-1,-1,-1,-1,-1,-1,-1,-1,-1,-1,-1,-1,-1,-1,-1,-1,-1,-1,-1,-1,-1,-1],"loss_changes":[1.9584836E2,6.371414E0,5.2553585E1,2.0144348E0,1.7850013E0,1.1990422E1,1.4070419E1,0E0,3.824854E0,0E0,2.952714E0,9.794973E0,6.6144476E0,4.953915E0,7.801285E-1,0E0,2.908625E0,3.922048E0,1.368432E0,6.946414E0,3.8821163E0,5.470032E0,8.689476E0,6.6681376E0,9.136963E-1,1.949617E0,7.6459503E-1,0E0,0E0,0E0,0E0,0E0,0E0,0E0,0E0,0E0,0E0,0E0,0E0,0E0,0E0,0E0,0E0,0E0,0E0,0E0,0E0,0E0,0E0],"parents":[2147483647,0,0,1,1,2,2,3,3,4,4,5,5,6,6,8,8,10,10,11,11,12,12,13,13,14,14,16,16,17,17,18,18,19,19,20,20,21,21,22,22,23,23,24,24,25,25,26,26],"right_children":[2,4,6,8,10,12,14,-1,16,-1,18,20,22,24,26,-1,28,30,32,34,36,38,40,42,44,46,48,-1,-1,-1,-1,-1,-1,-1,-1,-1,-1,-1,-1,-1,-1,-1,-1,-1,-1,-1,-1,-1,-1],"split_conditions":[-7E-1,1E0,1.2E1,3.1E1,2E0,4.375E-1,2.5E1,6.1563373E-2,-1.04E1,-2.4356479E-2,-2.6E0,1.05E1,4E0,1.6E1,1E0,5.657906E-2,3.2E1,2.1E1,5E0,3E-1,6E0,2.4E1,2E0,1.5E1,5E0,1.5E1,1.3E1,3.672636E-2,-1.3353698E-2,3.590484E-2,-6.1579037E-2,4.5749832E-2,3.718111E-3,-5.093325E-2,4.895083E-3,-6.54545E-2,2.1688964E-2,-3.209522E-2,6.508364E-3,-5.749272E-2,-1.1561537E-2,-2.0697115E-2,2.4809957E-2,-2.516129E-2,-5.7911843E-2,-4.4231977E-2,2.2272827E-2,-3.9560113E-2,-5.8483597E-2],"split_indices":[11,6,5,9,6,10,2,0,11,0,11,11,5,5,9,0,2,2,6,11,4,2,6,6,4,6,5,0,0,0,0,0,0,0,0,0,0,0,0,0,0,0,0,0,0,0,0,0,0],"split_type":[0,0,0,0,0,0,0,0,0,0,0,0,0,0,0,0,0,0,0,0,0,0,0,0,0,0,0,0,0,0,0,0,0,0,0,0,0,0,0,0,0,0,0,0,0,0,0,0,0],"sum_hessian":[1.0304915E3,1.4500797E2,8.854835E2,1.305625E2,1.4445472E1,7.6156995E2,1.23913605E2,1.0461216E2,2.5950342E1,1.175421E0,1.3270051E1,3.9430008E2,3.6726984E2,5.4989735E1,6.892387E1,1.5868772E1,1.0081571E1,2.2543833E0,1.1015668E1,3.8720065E2,7.099455E0,8.994441E1,2.773254E2,4.166259E1,1.33271475E1,2.646048E0,6.6277824E1,5.66656E0,4.415011E0,1.0418382E0,1.212545E0,8.335404E0,2.680263E0,4.659404E0,3.8254123E2,6.0487304E0,1.0507244E0,9.343176E0,8.060124E1,9.79933E0,2.675261E2,3.192981E1,9.732779E0,6.7735324E0,6.5536146E0,1.5008435E0,1.1452045E0,1.7350555E1,4.8927265E1],"tree_param":{"num_deleted":"0","num_feature":"12","num_nodes":"49","size_leaf_vector":"1"}},{"base_weights":[-1.8718218E-2,1.0960828E0,-1.9316494E-1,1.1842978E0,6.571727E-1,-7.7217735E-2,-7.2004765E-1,5.9573144E-2,1.8331755E-2,8.058674E-1,-2.2240616E-1,1.5239692E-1,-1.6708592E-1,-3.718542E-1,-9.19261E-1,5.512085E-2,4.921863E-1,-6.724022E-2,4.8914086E-2,2.4314468E-1,-5.9147877E-1,-1.3069758E-1,-8.030121E-1,-1.9464442E-1,-8.8803774E-1,-3.1636602E-1,-1.0454607E0,-2.8242901E-2,3.233323E-2,2.3825034E-2,3.986364E-3,-5.9315432E-2,6.376455E-4,1.2901084E-3,-1.2289449E-2,-7.9803996E-2,-1.5616019E-2,-4.0189635E-2,7.460361E-4,-5.0862458E-2,-5.3197183E-3,2.1311638E-3,-5.9636135E-2,1.0689861E-2,-5.47588E-2],"categories":[],"categories_nodes":[],"categories_segments":[],"categories_sizes":[],"default_left":[0,0,0,0,0,0,0,0,0,0,0,0,0,0,0,0,0,0,0,0,0,0,0,0,0,0,0,0,0,0,0,0,0,0,0,0,0,0,0,0,0,0,0,0,0],"id":20,"left_children":[1,3,5,7,9,11,13,-1,-1,15,17,19,21,23,25,-1,27,-1,-1,29,31,33,35,37,39,41,43,-1,-1,-1,-1,-1,-1,-1,-1,-1,-1,-1,-1,-1,-1,-1,-1,-1,-1],"loss_changes":[1.9830464E2,4.5639954E0,5.3803986E1,2.2894287E-1,3.4930696E0,1.4959762E1,1.0680244E1,0E0,0E0,1.4936295E0,7.3094673E0,1.3921877E1,1.1942586E1,5.270383E0,7.3077316E0,0E0,2.3972828E0,0E0,0E0,6.926153E0,8.095988E0,8.897783E0,1.0391605E1,5.830473E0,1.3993902E0,5.9688797E0,5.404167E0,0E0,0E0,0E0,0E0,0E0,0E0,0E0,0E0,0E0,0E0,0E0,0E0,0E0,0E0,0E0,0E0,0E0,0E0],"parents":[2147483647,0,0,1,1,2,2,3,3,4,4,5,5,6,6,9,9,10,10,11,11,12,12,13,13,14,14,16,16,19,19,20,20,21,21,22,22,23,23,24,24,25,25,26,26],"right_children":[2,4,6,8,10,12,14,-1,-1,16,18,20,22,24,26,-1,28,-1,-1,30,32,34,36,38,40,42,44,-1,-1,-1,-1,-1,-1,-1,-1,-1,-1,-1,-1,-1,-1,-1,-1,-1,-1],"split_conditions":[-7E-1,-6.9E0,1.1E1,5.7E1,5.6E1,1E0,2.4E1,5.9573144E-2,1.8331755E-2,-8E0,1E0,8.5E1,4.5E1,1.6E1,9.2E0,5.512085E-2,2E0,-6.724022E-2,4.8914086E-2,2.5E1,3E0,6E0,4.9E1,9E0,2.3E1,3.4E1,1E0,-2.8242901E-2,3.233323E-2,2.3825034E-2,3.986364E-3,-5.9315432E-2,6.376455E-4,1.2901084E-3,-1.2289449E-2,-7.9803996E-2,-1.5616019E-2,-4.0189635E-2,7.460361E-4,-5.0862458E-2,-5.3197183E-3,2.1311638E-3,-5.9636135E-2,1.0689861E-2,-5.47588E-2],"split_indices":[11,11,5,2,9,4,2,0,0,9,0,9,2,5,11,0,9,0,0,2,11,5,2,9,2,2,9,0,0,0,0,0,0,0,0,0,0,0,0,0,0,0,0,0,0],"split_type":[0,0,0,0,0,0,0,0,0,0,0,0,0,0,0,0,0,0,0,0,0,0,0,0,0,0,0,0,0,0,0,0,0,0,0,0,0,0,0,0,0,0,0,0,0],"sum_hessian":[1.0176119E3,1.3697711E2,8.8063477E2,1.1263976E2,2.4337349E1,7.2273444E2,1.5790031E2,1.1120811E2,1.4316573E0,2.0889702E1,3.4476461E0,2.0310419E2,5.1963025E2,5.8506615E1,9.939371E1,9.445555E0,1.1444147E1,1.7198805E0,1.7277656E0,1.8162083E2,2.1483364E1,4.926461E2,2.6984184E1,4.457929E1,1.3927325E1,1.7811163E1,8.158254E1,1.1204846E0,1.0323663E1,7.4014336E1,1.076065E2,1.0340464E1,1.11429E1,2.0909598E2,2.835501E2,9.453116E0,1.7531069E1,1.0685104E1,3.3894184E1,1.1692968E1,2.2343569E0,1.331017E1,4.5009933E0,2.9731832E0,7.860936E1],"tree_param":{"num_deleted":"0","num_feature":"12","num_nodes":"45","size_leaf_vector":"1"}},{"base_weights":[-2.4861483E-2,-1.8731964E-1,1.1364168E0,-8.906047E-2,-6.501678E-1,6.024762E-2,7.6481813E-1,-7.692226E-2,-7.702776E-2,-7.076996E-1,5.969012E-1,2.597195E-1,1.0761409E0,5.483483E-1,-9.752534E-2,-4.7569215E-1,-9.3913084E-1,-4.3814536E-2,1.014938E0,4.456002E-1,-2.941306E-2,1.5601833E-2,5.6988683E-2,4.896077E-2,-2.2945525E-3,-3.0159734E-3,-1.9846667E-2,-3.0786887E-2,1.87824E-4,-8.818932E-3,-5.2422907E-2,6.821801E-2,-7.169653E-4,3.5538252E-2,-1.3471809E-2],"categories":[],"categories_nodes":[],"categories_segments":[],"categories_sizes":[],"default_left":[0,0,0,0,0,0,0,0,0,0,0,0,0,0,0,0,0,0,0,0,0,0,0,0,0,0,0,0,0,0,0,0,0,0,0],"id":21,"left_children":[1,3,5,7,9,-1,11,-1,13,15,17,19,21,23,25,27,29,-1,31,33,-1,-1,-1,-1,-1,-1,-1,-1,-1,-1,-1,-1,-1,-1,-1],"loss_changes":[1.896532E2,4.0043915E1,2.2205505E0,1.258675E1,1.1489464E1,0E0,3.1720066E0,0E0,9.328651E0,7.4949875E0,5.412713E0,1.7891774E0,2.891426E-1,5.9630666E0,7.7900434E0,5.0978146E0,5.9041367E0,0E0,2.2439108E0,1.8059963E0,0E0,0E0,0E0,0E0,0E0,0E0,0E0,0E0,0E0,0E0,0E0,0E0,0E0,0E0,0E0],"parents":[2147483647,0,0,1,1,2,2,3,3,4,4,6,6,8,8,9,9,10,10,11,11,12,12,13,13,14,14,15,15,16,16,18,18,19,19],"right_children":[2,4,6,8,10,-1,12,-1,14,16,18,20,22,24,26,28,30,-1,32,34,-1,-1,-1,-1,-1,-1,-1,-1,-1,-1,-1,-1,-1,-1,-1],"split_conditions":[4.8E1,9.2E0,4.1E1,1E0,4E0,6.024762E-2,9.7E1,-7.692226E-2,-7E0,4.375E-1,9.5E0,8.7E1,4.6E1,5E0,1E0,3E1,1.1E1,-4.3814536E-2,1.14E1,9E1,-2.941306E-2,1.5601833E-2,5.6988683E-2,4.896077E-2,-2.2945525E-3,-3.0159734E-3,-1.9846667E-2,-3.0786887E-2,1.87824E-4,-8.818932E-3,-5.2422907E-2,6.821801E-2,-7.169653E-4,3.5538252E-2,-1.3471809E-2],"split_indices":[7,11,9,6,7,0,7,0,9,10,11,7,9,6,10,9,5,0,11,9,0,0,0,0,0,0,0,0,0,0,0,0,0,0,0],"split_type":[0,0,0,0,0,0,0,0,0,0,0,0,0,0,0,0,0,0,0,0,0,0,0,0,0,0,0,0,0,0,0,0,0,0,0],"sum_hessian":[1.0031408E3,8.8076416E2,1.2237666E2,7.275114E2,1.5325275E2,1.0142735E2,2.094931E1,4.9455533E0,7.2256586E2,1.4690787E2,6.34488E0,8.687962E0,1.2261348E1,2.2114239E1,7.004516E2,7.488842E1,7.201945E1,1.1601659E0,5.1847143E0,7.5151315E0,1.1728303E0,1.396449E0,1.0864899E1,1.2443756E1,9.670484E0,6.240995E2,7.635215E1,5.7738815E1,1.7149605E1,9.356247E0,6.26632E1,3.6276402E0,1.5570737E0,5.4864893E0,2.0286422E0],"tree_param":{"num_deleted":"0","num_feature":"12","num_nodes":"35","size_leaf_vector":"1"}},{"base_weights":[7.3475917E-3,1.1177478E0,-1.4059976E-1,5.9576463E-2,7.1616584E-1,-3.4297973E-2,-6.2185854E-1,8.594712E-1,-3.701355E-2,1.1822576E-1,-1.5357289E-1,-3.0274278E-1,-8.14944E-1,9.7662365E-1,3.0362588E-1,1.359793E-1,-7.0587136E-2,-2.8837126E-1,1.02241114E-1,-1.0655107E0,-3.5075977E-2,-3.9076948E-1,-9.9262226E-1,8.578825E-3,5.1158883E-2,4.647703E-2,-2.4534075E-2,2.4717657E-2,2.7860897E-3,-1.571943E-2,7.760169E-2,1.486374E-2,-8.008339E-3,-1.24450475E-2,-6.673575E-2,7.47621E-3,-3.4062855E-2,-2.7354969E-2,3.9276537E-2,-3.6892425E-2,-5.5241544E-2],"categories":[],"categories_nodes":[],"categories_segments":[],"categories_sizes":[],"default_left":[0,0,0,0,0,0,0,0,0,0,0,0,0,0,0,0,0,0,0,0,0,0,0,0,0,0,0,0,0,0,0,0,0,0,0,0,0,0,0,0,0],"id":22,"left_children":[1,3,5,-1,7,9,11,13,-1,15,17,19,21,23,25,27,-1,29,31,33,35,37,39,-1,-1,-1,-1,-1,-1,-1,-1,-1,-1,-1,-1,-1,-1,-1,-1,-1,-1],"loss_changes":[1.6414484E2,2.6273804E0,4.508739E1,0E0,4.9649706E0,1.3176151E1,9.579079E0,9.631767E-1,0E0,8.828608E0,1.4040432E1,1.2560905E1,7.0554123E0,4.0633774E-1,2.8517666E0,9.039116E0,0E0,1.3241756E1,7.261418E0,3.1839714E0,5.6737795E0,6.094601E0,1.1560974E0,0E0,0E0,0E0,0E0,0E0,0E0,0E0,0E0,0E0,0E0,0E0,0E0,0E0,0E0,0E0,0E0,0E0,0E0],"parents":[2147483647,0,0,1,1,2,2,4,4,5,5,6,6,7,7,9,9,10,10,11,11,12,12,13,13,14,14,15,15,17,17,18,18,19,19,20,20,21,21,22,22],"right_children":[2,4,6,-1,8,10,12,14,-1,16,18,20,22,24,26,28,-1,30,32,34,36,38,40,-1,-1,-1,-1,-1,-1,-1,-1,-1,-1,-1,-1,-1,-1,-1,-1,-1,-1],"split_conditions":[1E0,4.1E1,9E0,5.9576463E-2,4.1E1,4E0,9E1,-7.6E0,-3.701355E-2,5.5E1,9E0,8E0,1.2E1,4.4E1,1E0,5E0,-7.0587136E-2,8.8E0,4.375E-1,1E0,1.6E1,4E0,2.5E1,8.578825E-3,5.1158883E-2,4.647703E-2,-2.4534075E-2,2.4717657E-2,2.7860897E-3,-1.571943E-2,7.760169E-2,1.486374E-2,-8.008339E-3,-1.24450475E-2,-6.673575E-2,7.47621E-3,-3.4062855E-2,-2.7354969E-2,3.9276537E-2,-3.6892425E-2,-5.5241544E-2],"split_indices":[3,9,11,0,2,11,8,11,0,2,6,9,5,9,1,9,0,11,10,9,5,3,2,0,0,0,0,0,0,0,0,0,0,0,0,0,0,0,0,0,0],"split_type":[0,0,0,0,0,0,0,0,0,0,0,0,0,0,0,0,0,0,0,0,0,0,0,0,0,0,0,0,0,0,0,0,0,0,0,0,0,0,0,0,0],"sum_hessian":[9.9721606E2,1.1647472E2,8.8074133E2,9.6734825E1,1.973989E1,7.222746E2,1.5846675E2,1.834475E1,1.395141E0,3.1696365E2,4.0531094E2,6.070555E1,9.776121E1,1.4526146E1,3.8186023E0,3.1422852E2,2.7351403E0,2.653568E2,1.3995413E2,1.4994659E1,4.571089E1,2.9805435E1,6.795577E1,1.0502335E0,1.3475913E1,2.040463E0,1.7781394E0,5.6551132E1,2.5767737E2,2.6247543E2,2.8813736E0,8.0207405E1,5.9746727E1,4.194762E0,1.0799897E1,3.615172E1,9.559174E0,2.6781132E1,3.0243044E0,2.309451E1,4.486126E1],"tree_param":{"num_deleted":"0","num_feature":"12","num_nodes":"41","size_leaf_vector":"1"}},{"base_weights":[6.4144107E-3,-1.3498715E-1,1.0844014E0,-4.6754323E-2,-5.6131953E-1,6.0700107E-1,1.141859E0,1.0379623E-1,-1.5047893E-1,-4.3930903E-1,-1.0882444E0,7.5481707E-1,-6.255714E-2,5.7474524E-2,1.5750436E-2,1.8990779E-1,-1.8035522E-1,2.0491421E-1,-1.9368738E-1,-3.3039874E-1,-8.917585E-1,8.572488E-3,-1.1615402E0,4.862369E-2,-4.5332685E-2,-2.0394037E-2,1.7319283E-2,4.3002144E-3,2.1179644E-2,4.647124E-3,-3.159181E-2,1.7711079E-2,-3.1580813E-2,-5.5005997E-2,-8.001179E-3,-2.2771997E-2,4.530554E-3,-2.6499957E-2,-5.7409693E-2,-1.4992836E-2,-6.2076308E-2,-1.3080671E-2,1.1397847E-2],"categories":[],"categories_nodes":[],"categories_segments":[],"categories_sizes":[],"default_left":[0,0,0,0,0,0,0,0,0,0,0,0,0,0,0,0,0,0,0,0,0,0,0,0,0,0,0,0,0,0,0,0,0,0,0,0,0,0,0,0,0,0,0],"id":23,"left_children":[1,3,5,7,9,11,13,15,17,19,21,23,25,-1,-1,27,29,31,33,35,37,-1,39,-1,41,-1,-1,-1,-1,-1,-1,-1,-1,-1,-1,-1,-1,-1,-1,-1,-1,-1,-1],"loss_changes":[1.539604E2,3.3563828E1,2.5196686E0,1.1585912E1,9.360001E0,1.5037994E0,2.9040527E-1,7.4442625E0,6.782487E0,5.9108047E0,2.793106E0,2.1570086E0,6.4754313E-1,0E0,0E0,5.618371E0,8.812296E0,6.2294693E0,1.1785873E1,5.468175E0,1.6033745E0,0E0,1.4664497E0,0E0,2.6946288E-1,0E0,0E0,0E0,0E0,0E0,0E0,0E0,0E0,0E0,0E0,0E0,0E0,0E0,0E0,0E0,0E0,0E0,0E0],"parents":[2147483647,0,0,1,1,2,2,3,3,4,4,5,5,6,6,7,7,8,8,9,9,10,10,11,11,12,12,15,15,16,16,17,17,18,18,19,19,20,20,22,22,24,24],"right_children":[2,4,6,8,10,12,14,16,18,20,22,24,26,-1,-1,28,30,32,34,36,38,-1,40,-1,42,-1,-1,-1,-1,-1,-1,-1,-1,-1,-1,-1,-1,-1,-1,-1,-1,-1,-1],"split_conditions":[3.5E1,1.1E1,6.8E1,2.5E1,1.8E2,6.6E1,5.5E1,4.375E-1,1.6E0,1.6E1,2.2E1,3.8E1,2.9E1,5.7474524E-2,1.5750436E-2,4E0,1E0,4.1E1,2E0,1.2E1,9E1,8.572488E-3,8.5E0,4.862369E-2,4.9E1,-2.0394037E-2,1.7319283E-2,4.3002144E-3,2.1179644E-2,4.647124E-3,-3.159181E-2,1.7711079E-2,-3.1580813E-2,-5.5005997E-2,-8.001179E-3,-2.2771997E-2,4.530554E-3,-2.6499957E-2,-5.7409693E-2,-1.4992836E-2,-6.2076308E-2,-1.3080671E-2,1.1397847E-2],"split_indices":[7,5,7,2,8,7,2,10,11,5,2,2,2,0,0,7,0,2,6,11,8,0,11,0,2,0,0,0,0,0,0,0,0,0,0,0,0,0,0,0,0,0,0],"split_type":[0,0,0,0,0,0,0,0,0,0,0,0,0,0,0,0,0,0,0,0,0,0,0,0,0,0,0,0,0,0,0,0,0,0,0,0,0,0,0,0,0,0,0],"sum_hessian":[1.0080861E3,8.9196075E2,1.16125374E2,7.3993506E2,1.5202568E2,1.3717185E1,1.0240819E2,3.0183603E2,4.3809903E2,1.2493131E2,2.7094376E1,1.1132227E1,2.5849578E0,1.01085014E2,1.3231736E0,2.3189296E2,6.9943054E1,4.7084297E1,3.9101474E2,1.0208775E2,2.2843561E1,1.4161762E0,2.56782E1,8.582305E0,2.5499227E0,1.4029022E0,1.1820555E0,1.6146759E2,7.042537E1,4.406379E1,2.5879263E1,4.044251E1,6.6417856E0,1.2867386E1,3.7814737E2,7.8647446E1,2.3440308E1,1.0747958E1,1.2095603E1,2.584494E0,2.3093706E1,1.4472764E0,1.1026464E0],"tree_param":{"num_deleted":"0","num_feature":"12","num_nodes":"43","size_leaf_vector":"1"}},{"base_weights":[-1.7690424E-2,-1.556779E-1,1.0620997E0,-1.1749217E-1,-8.400043E-1,7.249598E-1,1.115424E0,-1.3382248E-2,-2.4842009E-1,-4.433823E-1,-1.0613958E0,8.389032E-1,1.3832389E-1,5.616949E-2,1.5624742E-2,-3.641855E-4,-6.860119E-2,-1.8707953E-1,-8.033977E-1,-7.158029E-2,-5.567289E-2,-5.6241084E-2,-3.0008543E-1,4.928769E-1,1.0354687E0,-1.4305177E-2,2.5007164E-2,-3.8058665E-3,1.1240333E-2,7.2847977E-3,-1.222068E-2,1.6139839E-2,-4.4887092E-2,-5.3734984E-2,2.2943731E-2,-4.1293178E-2,2.3693347E-2,3.9463017E-2,7.040373E-4,5.6831926E-2,1.2213001E-2],"categories":[],"categories_nodes":[],"categories_segments":[],"categories_sizes":[],"default_left":[0,0,0,0,0,0,0,0,0,0,0,0,0,0,0,0,0,0,0,0,0,0,0,0,0,0,0,0,0,0,0,0,0,0,0,0,0,0,0,0,0],"id":24,"left_children":[1,3,5,7,9,11,13,15,17,19,21,23,25,-1,-1,27,-1,29,31,33,-1,-1,35,37,39,-1,-1,-1,-1,-1,-1,-1,-1,-1,-1,-1,-1,-1,-1,-1,-1],"loss_changes":[1.4789322E2,2.2897175E1,1.2133789E0,1.1373824E1,3.5990524E0,1.1016264E0,2.582016E-1,8.241656E0,1.2433725E1,4.4845324E0,1.0640602E0,5.137367E-1,7.8196514E-1,0E0,0E0,7.907548E0,0E0,6.411319E0,4.1665535E0,7.3314323E0,0E0,0E0,1.8547113E0,1.0337375E0,4.1825485E-1,0E0,0E0,0E0,0E0,0E0,0E0,0E0,0E0,0E0,0E0,0E0,0E0,0E0,0E0,0E0,0E0],"parents":[2147483647,0,0,1,1,2,2,3,3,4,4,5,5,6,6,7,7,8,8,9,9,10,10,11,11,12,12,15,15,17,17,18,18,19,19,22,22,23,23,24,24],"right_children":[2,4,6,8,10,12,14,16,18,20,22,24,26,-1,-1,28,-1,30,32,34,-1,-1,36,38,40,-1,-1,-1,-1,-1,-1,-1,-1,-1,-1,-1,-1,-1,-1,-1,-1],"split_conditions":[3.4E1,1.25E1,7.1E1,5.7E0,9E1,1E0,5.7E1,4E0,1E0,5E0,2E0,1E0,6.7E1,5.616949E-2,1.5624742E-2,2E0,-6.860119E-2,2E1,2E0,3E0,-5.567289E-2,-5.6241084E-2,1E0,2.3E1,6.7E1,-1.4305177E-2,2.5007164E-2,-3.8058665E-3,1.1240333E-2,7.2847977E-3,-1.222068E-2,1.6139839E-2,-4.4887092E-2,-5.3734984E-2,2.2943731E-2,-4.1293178E-2,2.3693347E-2,3.9463017E-2,7.040373E-4,5.6831926E-2,1.2213001E-2],"split_indices":[7,11,7,11,8,10,2,4,10,4,7,0,7,0,0,4,0,2,3,4,0,0,0,2,7,0,0,0,0,0,0,0,0,0,0,0,0,0,0,0,0],"split_type":[0,0,0,0,0,0,0,0,0,0,0,0,0,0,0,0,0,0,0,0,0,0,0,0,0,0,0,0,0,0,0,0,0,0,0,0,0,0,0,0,0],"sum_hessian":[9.904788E2,8.790056E2,1.114732E2,8.336588E2,4.534685E1,1.721674E1,9.4256454E1,4.6500394E2,3.6865485E2,1.73203E1,2.802655E1,1.4056497E1,3.1602433E0,9.293533E1,1.3211251E0,4.6158148E2,3.4224558E0,3.331676E2,3.548725E1,1.1851262E1,5.4690366E0,2.5430424E1,2.596127E0,6.3629136E0,7.693583E0,1.5505986E0,1.6096448E0,3.4588052E2,1.1570096E2,4.873885E1,2.8442874E2,2.555887E0,3.2931362E1,3.7444003E0,8.106862E0,1.5059795E0,1.0901475E0,3.5296004E0,2.8333132E0,6.434265E0,1.2593179E0],"tree_param":{"num_deleted":"0","num_feature":"12","num_nodes":"41","size_leaf_vector":"1"}},{"base_weights":[-6.2376205E-3,1.00588E0,-1.4176838E-1,1.0383693E0,-1.05761744E-1,9.3932286E-2,-2.5843465E-1,1.0802988E0,4.7817308E-1,-6.6354975E-2,4.0040147E-2,4.2224264E-1,1.1414752E-2,-2.2274709E-1,-9.3011564E-1,5.774491E-2,7.814968E-1,-6.5673225E-2,4.9664572E-2,2.8631628E-1,1.115944E0,-8.6010355E-1,8.7134674E-2,-2.5843543E-1,3.2831898E-1,1.0089509E-2,-9.982994E-1,2.276616E-2,5.1147938E-2,-2.9371386E-2,2.5656784E-2,3.370075E-3,2.8731087E-2,6.8551265E-2,-9.7812405E-3,-8.684986E-2,-2.0956626E-2,7.5737867E-3,-1.2753679E-2,-2.098115E-2,-8.910624E-3,-1.5414568E-2,2.9668003E-2,-3.243978E-2,-5.706014E-2],"categories":[],"categories_nodes":[],"categories_segments":[],"categories_sizes":[],"default_left":[0,0,0,0,0,0,0,0,0,0,0,0,0,0,0,0,0,0,0,0,0,0,0,0,0,0,0,0,0,0,0,0,0,0,0,0,0,0,0,0,0,0,0,0,0],"id":25,"left_children":[1,3,5,7,9,11,13,15,17,-1,-1,19,21,23,25,-1,27,29,-1,31,33,35,37,39,41,-1,43,-1,-1,-1,-1,-1,-1,-1,-1,-1,-1,-1,-1,-1,-1,-1,-1,-1,-1],"loss_changes":[1.3657747E2,4.356476E0,2.4168793E1,2.1690369E0,5.764548E0,7.890826E0,1.3877766E1,1.4508667E0,2.7983305E0,0E0,0E0,5.1976185E0,1.5512569E1,1.1083639E1,2.4650497E0,0E0,1.4390764E0,2.0178716E0,0E0,3.1340022E0,3.359953E0,6.5385942E0,4.7976627E0,6.724365E0,5.9967117E0,0E0,6.4964485E-1,0E0,0E0,0E0,0E0,0E0,0E0,0E0,0E0,0E0,0E0,0E0,0E0,0E0,0E0,0E0,0E0,0E0,0E0],"parents":[2147483647,0,0,1,1,2,2,3,3,4,4,5,5,6,6,7,7,8,8,11,11,12,12,13,13,14,14,16,16,17,17,19,19,20,20,21,21,22,22,23,23,24,24,26,26],"right_children":[2,4,6,8,10,12,14,16,18,-1,-1,20,22,24,26,-1,28,30,-1,32,34,36,38,40,42,-1,44,-1,-1,-1,-1,-1,-1,-1,-1,-1,-1,-1,-1,-1,-1,-1,-1,-1,-1],"split_conditions":[-7E-1,1.32E2,5E0,3E0,9.5E1,6E0,1.6E1,2.7E1,1E0,-6.6354975E-2,4.0040147E-2,2E0,1E1,1.1E1,1E0,5.774491E-2,1.03E2,-1.3E0,4.9664572E-2,1.2E1,9E1,2.4E0,8.4E1,2E0,3.6E0,1.0089509E-2,9E1,2.276616E-2,5.1147938E-2,-2.9371386E-2,2.5656784E-2,3.370075E-3,2.8731087E-2,6.8551265E-2,-9.7812405E-3,-8.684986E-2,-2.0956626E-2,7.5737867E-3,-1.2753679E-2,-2.098115E-2,-8.910624E-3,-1.5414568E-2,2.9668003E-2,-3.243978E-2,-5.706014E-2],"split_indices":[11,9,5,6,7,9,5,9,0,0,0,4,9,7,9,0,7,11,0,7,8,11,9,4,11,0,8,0,0,0,0,0,0,0,0,0,0,0,0,0,0,0,0,0,0],"split_type":[0,0,0,0,0,0,0,0,0,0,0,0,0,0,0,0,0,0,0,0,0,0,0,0,0,0,0,0,0,0,0,0,0,0,0,0,0,0,0,0,0,0,0,0,0],"sum_hessian":[9.9361847E2,1.1658233E2,8.7703613E2,1.1333584E2,3.2464876E0,2.9044516E2,5.8659094E2,1.04579834E2,8.756005E0,1.1854943E0,2.0609934E0,5.751093E1,2.3293423E2,5.582612E2,2.8329762E1,8.139383E1,2.3186005E1,4.6836543E0,4.072351E0,4.92696E1,8.241328E0,1.7792122E1,2.151421E2,5.248046E2,3.345657E1,1.4982407E0,2.683152E1,1.109043E1,1.2095574E1,2.4553986E0,2.2282555E0,2.8706272E1,2.0563328E1,6.8615284E0,1.3798003E0,4.9699974E0,1.28221245E1,1.8156258E2,3.3579533E1,1.7299155E2,3.5181308E2,9.786615E0,2.3669954E1,9.394693E0,1.7436827E1],"tree_param":{"num_deleted":"0","num_feature":"12","num_nodes":"45","size_leaf_vector":"1"}},{"base_weights":[2.5737753E-2,-9.993311E-2,1.0829276E0,-1.2443267E-2,-4.9732196E-1,5.742783E-2,7.8409904E-1,-7.093537E-2,2.3343866E-1,-5.369613E-1,4.9408916E-1,9.1849667E-1,-1.603287E-2,2.8152838E-1,-1.1121203E-1,6.069838E-1,2.5384573E-2,-4.0380132E-1,-8.2538885E-1,-5.00157E-2,1.088374E0,4.7455408E-2,9.799103E-3,-7.002551E-3,3.8865935E-2,-6.2553906E-3,3.7956152E-2,1.6540693E-2,4.9459446E-2,1.7201787E-2,-1.6075099E-2,-2.9690955E-2,1.4936383E-2,-7.4337013E-3,-4.998776E-2,6.441557E-2,1.2478573E-2],"categories":[],"categories_nodes":[],"categories_segments":[],"categories_sizes":[],"default_left":[0,0,0,0,0,0,0,0,0,0,0,0,0,0,0,0,0,0,0,0,0,0,0,0,0,0,0,0,0,0,0,0,0,0,0,0,0],"id":26,"left_children":[1,3,5,7,9,-1,11,13,15,17,19,21,-1,23,25,27,29,31,33,-1,35,-1,-1,-1,-1,-1,-1,-1,-1,-1,-1,-1,-1,-1,-1,-1,-1],"loss_changes":[1.2995638E2,3.0395374E1,1.1374893E0,1.0338231E1,6.464802E0,0E0,3.540928E0,8.2724495E0,1.0721233E1,5.5109863E0,6.937464E0,2.508545E-1,0E0,1.2611612E1,6.4044695E0,4.884598E0,1.0033761E1,1.4335953E1,5.4095383E0,0E0,5.490136E-1,0E0,0E0,0E0,0E0,0E0,0E0,0E0,0E0,0E0,0E0,0E0,0E0,0E0,0E0,0E0,0E0],"parents":[2147483647,0,0,1,1,2,2,3,3,4,4,6,6,7,7,8,8,9,9,10,10,11,11,13,13,14,14,15,15,16,16,17,17,18,18,20,20],"right_children":[2,4,6,8,10,-1,12,14,16,18,20,22,-1,24,26,28,30,32,34,-1,36,-1,-1,-1,-1,-1,-1,-1,-1,-1,-1,-1,-1,-1,-1,-1,-1],"split_conditions":[5.8E1,9E0,3.1E1,1E1,4E0,5.742783E-2,4.2E1,1.9E1,2.3E1,4.9E1,9.9E0,1.71E2,-1.603287E-2,2E0,8.8E0,3.3E0,5E0,3E1,9.8E0,-5.00157E-2,2E0,4.7455408E-2,9.799103E-3,-7.002551E-3,3.8865935E-2,-6.2553906E-3,3.7956152E-2,1.6540693E-2,4.9459446E-2,1.7201787E-2,-1.6075099E-2,-2.9690955E-2,1.4936383E-2,-7.4337013E-3,-4.998776E-2,6.441557E-2,1.2478573E-2],"split_indices":[7,11,9,7,7,0,2,2,2,9,11,9,0,4,11,11,6,9,11,0,4,0,0,0,0,0,0,0,0,0,0,0,0,0,0,0,0],"split_type":[0,0,0,0,0,0,0,0,0,0,0,0,0,0,0,0,0,0,0,0,0,0,0,0,0,0,0,0,0,0,0,0,0,0,0,0,0],"sum_hessian":[9.7634576E2,8.73425E2,1.0292079E2,7.166724E2,1.5675258E2,8.2056046E1,2.0864746E1,5.7952295E2,1.3714944E2,1.511669E2,5.585679E0,1.8752085E1,2.1126618E0,5.8817482E1,5.207055E2,4.8376225E1,8.877322E1,1.0506223E2,4.6104664E1,1.3948734E0,4.190806E0,1.7689018E1,1.0630653E0,3.2175552E1,2.664193E1,5.1336536E2,7.340143E0,2.9166752E1,1.9209473E1,4.627399E1,4.2499226E1,8.281692E1,2.2245312E1,9.825318E0,3.6279343E1,2.9514124E0,1.2393934E0],"tree_param":{"num_deleted":"0","num_feature":"12","num_nodes":"37","size_leaf_vector":"1"}},{"base_weights":[2.841524E-3,-1.1617024E-1,1.0789826E0,-3.337368E-2,-4.546869E-1,5.431057E-2,1.933418E-2,1.3063192E-2,-4.1790935E-1,-3.3011022E-1,-8.358062E-1,-1.1632862E-2,7.927121E-1,-1.503738E-1,-9.014115E-1,5.3066725E-1,-3.981105E-1,-4.0129748E-1,-1.1024336E0,1.3495567E-2,-3.1066665E-3,7.329177E-2,2.2037223E-2,-1.7039455E-2,4.3922435E-2,-6.2389564E-2,-2.1886284E-2,-1.5206453E-2,5.8065023E-2,-2.3793269E-2,1.5668144E-2,-5.4772254E-2,-1.0720774E-3,-5.9194494E-2,-4.6067173E-3],"categories":[],"categories_nodes":[],"categories_segments":[],"categories_sizes":[],"default_left":[0,0,0,0,0,0,0,0,0,0,0,0,0,0,0,0,0,0,0,0,0,0,0,0,0,0,0,0,0,0,0,0,0,0,0],"id":27,"left_children":[1,3,5,7,9,-1,-1,11,13,15,17,19,21,23,25,27,29,31,33,-1,-1,-1,-1,-1,-1,-1,-1,-1,-1,-1,-1,-1,-1,-1,-1],"loss_changes":[1.26970024E2,2.500502E1,7.4035645E-2,1.2832482E1,8.049534E0,0E0,0E0,1.2368595E1,9.880341E0,8.043402E0,4.4864616E0,8.877225E0,4.026675E0,1.0299862E1,3.851675E0,5.736293E0,7.0410404E0,4.657065E0,2.0135918E0,0E0,0E0,0E0,0E0,0E0,0E0,0E0,0E0,0E0,0E0,0E0,0E0,0E0,0E0,0E0,0E0],"parents":[2147483647,0,0,1,1,2,2,3,3,4,4,7,7,8,8,9,9,10,10,11,11,12,12,13,13,14,14,15,15,16,16,17,17,18,18],"right_children":[2,4,6,8,10,-1,-1,12,14,16,18,20,22,24,26,28,30,32,34,-1,-1,-1,-1,-1,-1,-1,-1,-1,-1,-1,-1,-1,-1,-1,-1],"split_conditions":[5.8E1,8.7E0,5.5E1,1E0,1.25E1,5.431057E-2,1.933418E-2,1.3E1,4.8E0,1.8E1,9E1,2E0,6.9E0,4.1E1,3.2E1,4E0,1.2E1,1.6E1,2E0,1.3495567E-2,-3.1066665E-3,7.329177E-2,2.2037223E-2,-1.7039455E-2,4.3922435E-2,-6.2389564E-2,-2.1886284E-2,-1.5206453E-2,5.8065023E-2,-2.3793269E-2,1.5668144E-2,-5.4772254E-2,-1.0720774E-3,-5.9194494E-2,-4.6067173E-3],"split_indices":[7,11,2,10,11,0,0,6,11,2,8,11,11,2,2,4,11,6,7,0,0,0,0,0,0,0,0,0,0,0,0,0,0,0,0],"split_type":[0,0,0,0,0,0,0,0,0,0,0,0,0,0,0,0,0,0,0,0,0,0,0,0,0,0,0,0,0,0,0,0,0,0,0],"sum_hessian":[9.8940576E2,8.9168524E2,9.772052E1,7.1733374E2,1.7435147E2,9.6147575E1,1.5729418E0,6.409037E2,7.643008E1,1.3280693E2,4.154453E1,6.2218066E2,1.8723032E1,5.0048058E1,2.6382015E1,9.225293E0,1.2358164E2,1.6751148E1,2.479338E1,9.396627E1,5.2821436E2,5.3419976E0,1.3381035E1,4.279608E1,7.2519755E0,1.4133249E1,1.2248766E1,4.1928186E0,5.0324745E0,1.11704895E2,1.1876746E1,5.2583013E0,1.14928465E1,2.2784538E1,2.008843E0],"tree_param":{"num_deleted":"0","num_feature":"12","num_nodes":"35","size_leaf_vector":"1"}},{"base_weights":[-9.127755E-4,-1.1141402E-1,1.0354207E0,3.4275316E-2,-4.1874492E-1,5.2944124E-1,5.4138303E-2,1.7812803E-1,-9.2993096E-2,-3.4103575E-1,-8.3505166E-1,8.491058E-1,8.2570314E-2,7.1111664E-2,4.0111884E-1,-2.7165962E-2,-3.448822E-1,-3.7840483E-1,4.1207543E-1,-1.7609625E-1,-9.494173E-1,4.705162E-2,1.4376159E-2,3.2250997E-2,-2.5244644E-1,-2.3065016E-2,7.255071E-3,3.2951087E-2,3.0777848E-3,-6.802617E-3,1.609846E-2,-3.656635E-2,-4.5925216E-3,-1.610939E-2,-4.3896627E-2,4.2731635E-2,-1.5854822E-2,-4.942226E-2,2.2027155E-2,-2.5692312E-2,-5.165037E-2,-2.4500748E-2,8.921954E-3],"categories":[],"categories_nodes":[],"categories_segments":[],"categories_sizes":[],"default_left":[0,0,0,0,0,0,0,0,0,0,0,0,0,0,0,0,0,0,0,0,0,0,0,0,0,0,0,0,0,0,0,0,0,0,0,0,0,0,0,0,0,0,0],"id":28,"left_children":[1,3,5,7,9,11,-1,13,15,17,19,21,23,25,27,29,31,33,35,37,39,-1,-1,-1,41,-1,-1,-1,-1,-1,-1,-1,-1,-1,-1,-1,-1,-1,-1,-1,-1,-1,-1],"loss_changes":[1.1090081E2,3.919729E1,1.6620865E0,1.0902506E1,8.8222275E0,1.3499565E0,0E0,6.6403885E0,5.2326636E0,6.879776E0,3.1179142E0,2.305317E-2,1.1527292E0,7.5535817E0,7.8769264E0,9.613528E0,6.3293843E0,6.123852E0,4.07022E0,4.2797375E0,8.133087E-1,0E0,0E0,0E0,4.9802867E-1,0E0,0E0,0E0,0E0,0E0,0E0,0E0,0E0,0E0,0E0,0E0,0E0,0E0,0E0,0E0,0E0,0E0,0E0],"parents":[2147483647,0,0,1,1,2,2,3,3,4,4,5,5,7,7,8,8,9,9,10,10,11,11,12,12,13,13,14,14,15,15,16,16,17,17,18,18,19,19,20,20,24,24],"right_children":[2,4,6,8,10,12,-1,14,16,18,20,22,24,26,28,30,32,34,36,38,40,-1,-1,-1,42,-1,-1,-1,-1,-1,-1,-1,-1,-1,-1,-1,-1,-1,-1,-1,-1,-1,-1],"split_conditions":[6.2E1,7.2E0,7.1E1,2.6E1,1.25E1,6.6E1,5.4138303E-2,2E0,5.7E0,5E0,2E1,3.5E1,4.375E-1,1.8E1,1.25E-1,2E0,2E0,1E0,4.375E-1,1.44E1,1.32E1,4.705162E-2,1.4376159E-2,3.2250997E-2,6.8E1,-2.3065016E-2,7.255071E-3,3.2951087E-2,3.0777848E-3,-6.802617E-3,1.609846E-2,-3.656635E-2,-4.5925216E-3,-1.610939E-2,-4.3896627E-2,4.2731635E-2,-1.5854822E-2,-4.942226E-2,2.2027155E-2,-2.5692312E-2,-5.165037E-2,-2.4500748E-2,8.921954E-3],"split_indices":[7,11,7,2,11,7,0,4,11,7,2,2,10,2,10,3,4,10,10,11,11,0,0,0,7,0,0,0,0,0,0,0,0,0,0,0,0,0,0,0,0,0,0],"split_type":[0,0,0,0,0,0,0,0,0,0,0,0,0,0,0,0,0,0,0,0,0,0,0,0,0,0,0,0,0,0,0,0,0,0,0,0,0,0,0,0,0,0,0],"sum_hessian":[9.664221E2,8.741107E2,9.231141E1,5.936033E2,2.8050748E2,8.941054E0,8.337035E1,2.7845886E2,3.1514438E2,2.3791641E2,4.2591057E1,4.687666E0,4.2533884E0,1.8905005E2,8.940882E1,2.5072841E2,6.441596E1,2.2714319E2,1.07732115E1,6.674352E0,3.5916706E1,3.447636E0,1.24003E0,1.2423342E0,3.0110543E0,2.2428125E1,1.6662193E2,5.0279816E1,3.9129005E1,1.9158748E2,5.914094E1,2.4740528E1,3.967543E1,2.0564484E2,2.1498365E1,6.597141E0,4.176071E0,2.6199389E0,4.054413E0,6.933715E0,2.898299E1,1.8524688E0,1.1585855E0],"tree_param":{"num_deleted":"0","num_feature":"12","num_nodes":"43","size_leaf_vector":"1"}},{"base_weights":[2.1010589E-2,-8.446164E-2,9.644018E-1,5.5962004E-2,-2.5472993E-1,1.067118E0,5.1754606E-1,-6.7919426E-2,6.82682E-2,-6.10683E-2,-4.742819E-1,4.7926176E-1,5.614341E-2,-1.05792195E-1,4.8790287E-2,1.1615338E-1,-3.102538E-1,-1.1663095E-1,6.001086E-1,-3.9698613E-1,-5.6370426E-2,9.334973E-1,-1.1500303E-1,9.3882784E-2,-3.6924023E-2,6.441535E-3,-4.7807124E-2,-2.3605945E-2,1.1049184E-2,-4.149861E-3,-5.3011846E-2,-1.064033E-2,4.582743E-2,-1.01221E-2,-3.3179186E-2,5.267454E-2,1.5694452E-2,-5.1225055E-2,4.643205E-2,-3.0352218E-2,1.5803477E-2],"categories":[],"categories_nodes":[],"categories_segments":[],"categories_sizes":[],"default_left":[0,0,0,0,0,0,0,0,0,0,0,0,0,0,0,0,0,0,0,0,0,0,0,0,0,0,0,0,0,0,0,0,0,0,0,0,0,0,0,0,0],"id":29,"left_children":[1,3,5,7,9,11,13,-1,15,17,19,21,-1,23,-1,25,27,29,31,33,-1,35,37,39,-1,-1,-1,-1,-1,-1,-1,-1,-1,-1,-1,-1,-1,-1,-1,-1,-1],"loss_changes":[9.6247604E1,2.0820717E1,3.912262E0,8.4075985E0,1.6701744E1,2.0229645E0,5.850924E0,0E0,8.637575E0,7.792786E0,8.855099E0,2.4055517E0,0E0,1.2603097E0,0E0,5.8596134E0,4.7102523E0,6.093119E0,4.42901E0,8.491499E0,0E0,3.6242485E-2,5.297481E0,1.4460251E0,0E0,0E0,0E0,0E0,0E0,0E0,0E0,0E0,0E0,0E0,0E0,0E0,0E0,0E0,0E0,0E0,0E0],"parents":[2147483647,0,0,1,1,2,2,3,3,4,4,5,5,6,6,8,8,9,9,10,10,11,11,13,13,15,15,16,16,17,17,18,18,19,19,21,21,22,22,23,23],"right_children":[2,4,6,8,10,12,14,-1,16,18,20,22,-1,24,-1,26,28,30,32,34,-1,36,38,40,-1,-1,-1,-1,-1,-1,-1,-1,-1,-1,-1,-1,-1,-1,-1,-1,-1],"split_conditions":[2.9E1,7E0,3.1E1,1E0,4.375E-1,4.8E1,1.01E2,-6.7919426E-2,1E0,8E0,1.5E1,-7E0,5.614341E-2,1.32E2,4.8790287E-2,4E0,2E0,5E0,7E0,1E0,-5.6370426E-2,3.3E1,7E0,4.3E1,-3.6924023E-2,6.441535E-3,-4.7807124E-2,-2.3605945E-2,1.1049184E-2,-4.149861E-3,-5.3011846E-2,-1.064033E-2,4.582743E-2,-1.01221E-2,-3.3179186E-2,5.267454E-2,1.5694452E-2,-5.1225055E-2,4.643205E-2,-3.0352218E-2,1.5803477E-2],"split_indices":[7,5,9,6,10,7,7,0,10,7,5,9,0,9,0,4,4,3,6,0,0,7,6,9,0,0,0,0,0,0,0,0,0,0,0,0,0,0,0,0,0],"split_type":[0,0,0,0,0,0,0,0,0,0,0,0,0,0,0,0,0,0,0,0,0,0,0,0,0,0,0,0,0,0,0,0,0,0,0,0,0,0,0,0,0],"sum_hessian":[9.6547864E2,8.692104E2,9.626826E1,4.7672067E2,3.9248972E2,7.7146866E1,1.9121393E1,3.1686234E0,4.7355206E2,2.0921992E2,1.8326979E2,7.513852E0,6.963302E1,8.427374E0,1.0694019E1,4.2098785E2,5.256421E1,1.9376067E2,1.5459266E1,1.6531323E2,1.7956556E1,3.93513E0,3.5787222E0,7.0530577E0,1.3743163E0,4.1693842E2,4.0494375E0,4.0373817E1,1.2190391E1,1.881425E2,5.618161E0,4.4233766E0,1.103589E1,9.658885E1,6.872438E1,2.710049E0,1.2250811E0,1.9220594E0,1.6566627E0,1.280707E0,5.772351E0],"tree_param":{"num_deleted":"0","num_feature":"12","num_nodes":"41","size_leaf_vector":"1"}},{"base_weights":[3.6828455E-2,-5.4706275E-2,9.899414E-1,7.6721255E-3,-3.816217E-1,1.1015486E0,4.9514076E-1,-5.4614055E-1,3.6873154E-2,-2.7658632E-1,-8.769047E-1,1.3108025E-2,5.573777E-2,6.564814E-1,-4.2965353E-2,-1.6400607E-1,-1.0513732E0,-2.3237115E-2,3.3078772E-1,-2.074121E-1,-5.407638E-2,-9.621428E-1,2.7542187E-2,-3.704096E-2,8.1133807E-1,-3.307387E-2,7.62159E-3,-6.83196E-2,-1.917815E-2,5.433484E-3,-4.2488445E-3,3.822207E-2,1.149237E-2,-5.2512255E-3,-3.7075695E-2,-6.263126E-2,-2.7209878E-2,2.6125683E-2,5.006184E-2],"categories":[],"categories_nodes":[],"categories_segments":[],"categories_sizes":[],"default_left":[0,0,0,0,0,0,0,0,0,0,0,0,0,0,0,0,0,0,0,0,0,0,0,0,0,0,0,0,0,0,0,0,0,0,0,0,0,0,0],"id":30,"left_children":[1,3,5,7,9,11,13,15,17,19,21,-1,-1,23,-1,25,27,29,31,33,-1,35,-1,-1,37,-1,-1,-1,-1,-1,-1,-1,-1,-1,-1,-1,-1,-1,-1],"loss_changes":[8.533735E1,1.8209934E1,4.187584E0,1.216116E1,7.2009144E0,4.7396088E-1,4.4081297E0,7.0995255E0,1.2623586E1,6.430045E0,3.520588E0,0E0,0E0,4.1248436E0,0E0,3.6632318E0,2.849306E0,4.844852E0,5.1344376E0,6.00796E0,0E0,2.177847E0,0E0,0E0,3.0709934E-1,0E0,0E0,0E0,0E0,0E0,0E0,0E0,0E0,0E0,0E0,0E0,0E0,0E0,0E0],"parents":[2147483647,0,0,1,1,2,2,3,3,4,4,5,5,6,6,7,7,8,8,9,9,10,10,13,13,15,15,16,16,17,17,18,18,19,19,21,21,24,24],"right_children":[2,4,6,8,10,12,14,16,18,20,22,-1,-1,24,-1,26,28,30,32,34,-1,36,-1,-1,38,-1,-1,-1,-1,-1,-1,-1,-1,-1,-1,-1,-1,-1,-1],"split_conditions":[5.8E1,3E0,3.9E1,2E0,1.8E2,6.2E1,4.2E1,2.6E1,1.1E1,5E0,1.8E2,1.3108025E-2,5.573777E-2,4.4E1,-4.2965353E-2,2.1E1,3.7E1,5E0,-7E0,3.6E1,-5.407638E-2,3.2E1,2.7542187E-2,-3.704096E-2,1.01E2,-3.307387E-2,7.62159E-3,-6.83196E-2,-1.917815E-2,5.433484E-3,-4.2488445E-3,3.822207E-2,1.149237E-2,-5.2512255E-3,-3.7075695E-2,-6.263126E-2,-2.7209878E-2,2.6125683E-2,5.006184E-2],"split_indices":[7,3,9,6,8,7,2,2,7,3,9,0,0,9,0,2,2,6,9,2,0,2,0,0,7,0,0,0,0,0,0,0,0,0,0,0,0,0,0],"split_type":[0,0,0,0,0,0,0,0,0,0,0,0,0,0,0,0,0,0,0,0,0,0,0,0,0,0,0,0,0,0,0,0,0,0,0,0,0,0,0],"sum_hessian":[9.765369E2,8.918302E2,8.470668E1,7.497481E2,1.4208214E2,6.811616E1,1.6590519E1,3.666548E1,7.130826E2,1.1850835E2,2.3573795E1,1.3781034E0,6.673805E1,1.5285088E1,1.3054315E0,2.1630098E1,1.5035382E1,5.927721E2,1.2031052E2,1.10288185E2,8.2201605E0,2.2553442E1,1.0203536E0,1.1474581E0,1.41376295E1,7.985588E0,1.364451E1,9.505419E0,5.529963E0,1.8874945E2,4.040226E2,2.1475517E1,9.8835E1,9.355104E1,1.6737146E1,1.2127457E1,1.0425985E1,7.096233E0,7.041396E0],"tree_param":{"num_deleted":"0","num_feature":"12","num_nodes":"39","size_leaf_vector":"1"}},{"base_weights":[-1.1036555E-2,-1.09999634E-1,1.0055301E0,3.5175115E-2,-3.0113438E-1,5.2285063E-1,1.054467E0,-3.569137E-1,6.878809E-2,-2.434302E-1,-8.017581E-1,4.095978E-2,1.1445341E-1,5.3231824E-2,9.1262115E-3,1.6992526E-1,-5.881898E-1,1.6046683E-1,-6.745803E-2,-2.566799E-1,5.7738673E-2,-1.1940249E0,-5.0898165E-1,2.9806638E-2,-1.5378237E-1,-6.946584E-2,2.6890194E-2,5.726289E-3,-5.5563178E-2,8.8489335E-3,-6.423161E-2,-1.0486584E-2,1.3012283E-2,-1.165372E-2,-5.404163E-2,-6.652235E-2,-1.4717159E-2,8.5428555E-4,-5.5147387E-2,-2.165045E-2,8.012622E-3],"categories":[],"categories_nodes":[],"categories_segments":[],"categories_sizes":[],"default_left":[0,0,0,0,0,0,0,0,0,0,0,0,0,0,0,0,0,0,0,0,0,0,0,0,0,0,0,0,0,0,0,0,0,0,0,0,0,0,0,0,0],"id":31,"left_children":[1,3,5,7,9,11,13,15,17,19,21,-1,23,-1,-1,25,27,29,31,33,-1,35,37,-1,39,-1,-1,-1,-1,-1,-1,-1,-1,-1,-1,-1,-1,-1,-1,-1,-1],"loss_changes":[9.654784E1,2.4274961E1,1.4597397E0,6.586184E0,1.0712425E1,1.0948229E0,4.8240662E-1,4.9095836E0,5.749157E0,6.595049E0,3.823925E0,0E0,7.7543104E-1,0E0,0E0,8.099663E0,1.0292632E1,6.7870765E0,8.702809E0,6.316328E0,0E0,1.5413399E0,7.467704E0,0E0,4.3715835E-1,0E0,0E0,0E0,0E0,0E0,0E0,0E0,0E0,0E0,0E0,0E0,0E0,0E0,0E0,0E0,0E0],"parents":[2147483647,0,0,1,1,2,2,3,3,4,4,5,5,6,6,7,7,8,8,9,9,10,10,12,12,15,15,16,16,17,17,18,18,19,19,21,21,22,22,24,24],"right_children":[2,4,6,8,10,12,14,16,18,20,22,-1,24,-1,-1,26,28,30,32,34,-1,36,38,-1,40,-1,-1,-1,-1,-1,-1,-1,-1,-1,-1,-1,-1,-1,-1,-1,-1],"split_conditions":[6.2E1,6E0,7.1E1,2E0,1E0,6.6E1,5.5E1,1.25E-1,3.9E0,1.5E1,8.1E0,4.095978E-2,4.375E-1,5.3231824E-2,9.1262115E-3,9E-1,1.6E0,5.5E1,2E0,5E0,5.7738673E-2,1.2E1,1.02E1,2.9806638E-2,1E0,-6.946584E-2,2.6890194E-2,5.726289E-3,-5.5563178E-2,8.8489335E-3,-6.423161E-2,-1.0486584E-2,1.3012283E-2,-1.165372E-2,-5.404163E-2,-6.652235E-2,-1.4717159E-2,8.5428555E-4,-5.5147387E-2,-2.165045E-2,8.012622E-3],"split_indices":[7,11,7,6,10,7,2,10,11,7,11,0,10,0,0,11,11,2,7,3,0,6,11,0,10,0,0,0,0,0,0,0,0,0,0,0,0,0,0,0,0],"split_type":[0,0,0,0,0,0,0,0,0,0,0,0,0,0,0,0,0,0,0,0,0,0,0,0,0,0,0,0,0,0,0,0,0,0,0,0,0,0,0,0,0],"sum_hessian":[9.5759607E2,8.734566E2,8.413947E1,4.9687524E2,3.7658136E2,8.820848E0,7.531863E1,3.8473305E1,4.5840195E2,3.3899365E2,3.75877E1,4.528765E0,4.292083E0,7.4231865E1,1.0867616E0,1.1817871E1,2.6655434E1,2.7391162E2,1.8449034E2,3.3662018E2,2.3734665E0,1.474877E1,2.2838932E1,1.0979818E0,3.194101E0,1.725945E0,1.0091927E1,1.1707808E1,1.4947626E1,2.7168484E2,2.2267613E0,1.2889162E2,5.559873E1,3.284942E2,8.125971E0,1.2391068E1,2.3577018E0,1.2626793E1,1.0212139E1,1.490211E0,1.7038902E0],"tree_param":{"num_deleted":"0","num_feature":"12","num_nodes":"41","size_leaf_vector":"1"}},{"base_weights":[7.24479E-3,9.8301065E-1,-7.9873905E-2,4.8983437E-1,1.0394149E0,-4.502507E-2,-8.1039006E-1,4.7093656E-2,-5.810626E-2,5.36182E-2,6.974008E-1,1.1169503E-1,-1.3255449E-1,-4.7449523E-1,-5.593003E-2,2.5579346E-2,-2.9676452E-2,8.668491E-1,-1.1459119E-2,7.6096505E-2,9.43196E-1,-1.4908148E-1,9.294039E-1,-5.390365E-2,-1.7261639E-1,1.0642483E-2,4.766973E-2,7.3418985E-3,-1.6146326E-2,1.7001806E-2,5.5899143E-2,-2.3841541E-2,-5.628779E-3,5.426085E-2,7.5881556E-3,6.4063855E-3,-4.667028E-2],"categories":[],"categories_nodes":[],"categories_segments":[],"categories_sizes":[],"default_left":[0,0,0,0,0,0,0,0,0,0,0,0,0,0,0,0,0,0,0,0,0,0,0,0,0,0,0,0,0,0,0,0,0,0,0,0,0],"id":32,"left_children":[1,3,5,7,9,11,13,-1,15,-1,17,19,21,23,-1,-1,-1,25,-1,27,29,31,33,-1,35,-1,-1,-1,-1,-1,-1,-1,-1,-1,-1,-1,-1],"loss_changes":[8.054259E1,1.6511078E0,2.210897E1,2.4973323E0,2.7412415E-2,1.1418878E1,3.5636444E0,0E0,1.9507169E0,0E0,1.5968752E0,8.762823E0,9.508695E0,3.578579E0,0E0,0E0,0E0,2.3502731E-1,0E0,8.157125E0,9.0239716E-1,6.2465115E0,8.4335804E-1,0E0,3.543306E0,0E0,0E0,0E0,0E0,0E0,0E0,0E0,0E0,0E0,0E0,0E0,0E0],"parents":[2147483647,0,0,1,1,2,2,3,3,4,4,5,5,6,6,8,8,10,10,11,11,12,12,13,13,17,17,19,19,20,20,21,21,22,22,24,24],"right_children":[2,4,6,8,10,12,14,-1,16,-1,18,20,22,24,-1,-1,-1,26,-1,28,30,32,34,-1,36,-1,-1,-1,-1,-1,-1,-1,-1,-1,-1,-1,-1],"split_conditions":[1E0,7.1E1,1.5E1,4.375E-1,1E0,3.9E0,4.375E-1,4.7093656E-2,6.6E1,5.36182E-2,4.1E1,3.8E0,1.5E1,4E0,-5.593003E-2,2.5579346E-2,-2.9676452E-2,9.5E1,-1.1459119E-2,3.8E1,5E0,4.5E0,2.2E1,-5.390365E-2,2E1,1.0642483E-2,4.766973E-2,7.3418985E-3,-1.6146326E-2,1.7001806E-2,5.5899143E-2,-2.3841541E-2,-5.628779E-3,5.426085E-2,7.5881556E-3,6.4063855E-3,-4.667028E-2],"split_indices":[3,7,5,10,10,11,10,0,7,0,2,11,7,4,0,0,0,7,0,2,5,11,7,0,5,0,0,0,0,0,0,0,0,0,0,0,0],"split_type":[0,0,0,0,0,0,0,0,0,0,0,0,0,0,0,0,0,0,0,0,0,0,0,0,0,0,0,0,0,0,0,0,0,0,0,0,0],"sum_hessian":[9.4555316E2,7.665881E1,8.6889435E2,8.861519E0,6.7797295E1,8.3034485E2,3.8549473E1,4.4617453E0,4.3997736E0,5.9891956E1,7.905339E0,2.97464E2,5.3288086E2,1.9661472E1,1.8888E1,2.1532354E0,2.2465382E0,6.7376604E0,1.1676784E0,2.862984E2,1.1165597E1,5.255613E2,7.3195662E0,5.697886E0,1.3963586E1,1.1917021E0,5.5459585E0,2.4372179E2,4.257662E1,3.1704273E0,7.9951696E0,5.1463272E1,4.7409802E2,5.7682734E0,1.551293E0,1.0603537E1,3.3600497E0],"tree_param":{"num_deleted":"0","num_feature":"12","num_nodes":"37","size_leaf_vector":"1"}},{"base_weights":[-4.8103393E-3,-8.7384515E-2,9.5162857E-1,-5.606148E-2,-7.889216E-1,5.4704398E-2,4.0358582E-1,5.990795E-1,-7.5204305E-2,-2.9983765E-1,-1.0510716E0,-1.6461329E-1,4.5023266E-2,1.008428E0,8.9438766E-2,6.582184E-2,-1.764897E-1,-7.080707E-1,1.0957322E0,-5.709603E-2,5.572926E-4,3.7748346E-1,-8.613579E-1,-6.652936E-3,5.603168E-2,5.8387976E-2,-1.5968742E-2,-5.7146316E-3,1.059476E-2,-6.937398E-3,-3.0163968E-2,-5.2672874E-2,-9.485836E-3,7.677512E-2,1.4180176E-2,-8.261147E-3,2.90314E-2,-1.4187991E-2,-5.716771E-2],"categories":[],"categories_nodes":[],"categories_segments":[],"categories_sizes":[],"default_left":[0,0,0,0,0,0,0,0,0,0,0,0,0,0,0,0,0,0,0,0,0,0,0,0,0,0,0,0,0,0,0,0,0,0,0,0,0,0,0],"id":33,"left_children":[1,3,5,7,9,-1,11,13,15,17,19,21,-1,23,25,27,29,31,33,-1,-1,35,37,-1,-1,-1,-1,-1,-1,-1,-1,-1,-1,-1,-1,-1,-1,-1,-1],"loss_changes":[7.5104355E1,1.9190577E1,5.4590225E0,1.0567124E1,4.471817E0,0E0,4.9977427E0,4.902213E0,1.1668222E1,8.995657E0,2.319891E0,3.6711547E0,0E0,1.836421E0,5.555722E0,9.018041E0,7.571122E0,1.9073601E0,8.709178E-1,0E0,0E0,7.218809E-1,3.5659552E-1,0E0,0E0,0E0,0E0,0E0,0E0,0E0,0E0,0E0,0E0,0E0,0E0,0E0,0E0,0E0,0E0],"parents":[2147483647,0,0,1,1,2,2,3,3,4,4,6,6,7,7,8,8,9,9,10,10,11,11,13,13,14,14,15,15,16,16,17,17,18,18,21,21,22,22],"right_children":[2,4,6,8,10,-1,12,14,16,18,20,22,-1,24,26,28,30,32,34,-1,-1,36,38,-1,-1,-1,-1,-1,-1,-1,-1,-1,-1,-1,-1,-1,-1,-1,-1],"split_conditions":[5.8E1,1.5E1,3.1E1,-7E0,2E1,5.4704398E-2,1.03E2,5E0,2.5E1,1.8E1,2E0,3.2E1,4.5023266E-2,1.3E1,-1.7E1,2E1,1.2E1,1.7E1,1.6E1,-5.709603E-2,5.572926E-4,1.8E2,3.8E1,-6.652936E-3,5.603168E-2,5.8387976E-2,-1.5968742E-2,-5.7146316E-3,1.059476E-2,-6.937398E-3,-3.0163968E-2,-5.2672874E-2,-9.485836E-3,7.677512E-2,1.4180176E-2,-8.261147E-3,2.90314E-2,-1.4187991E-2,-5.716771E-2],"split_indices":[7,5,9,9,9,0,7,6,2,9,7,2,0,7,9,9,5,6,5,0,0,8,2,0,0,0,0,0,0,0,0,0,0,0,0,0,0,0,0],"split_type":[0,0,0,0,0,0,0,0,0,0,0,0,0,0,0,0,0,0,0,0,0,0,0,0,0,0,0,0,0,0,0,0,0,0,0,0,0,0,0],"sum_hessian":[9.4891016E2,8.743332E2,7.4576935E1,8.3799725E2,3.6335945E1,5.8399967E1,1.6176971E1,2.2930544E1,8.150667E2,1.3427848E1,2.2908098E1,7.8588295E0,8.318142E0,1.2173758E1,1.0756786E1,3.4084143E2,4.7422525E2,1.0770023E1,2.657825E0,2.103407E1,1.8740287E0,4.677644E0,3.181186E0,1.0729196E0,1.1100839E1,2.446702E0,8.310084E0,1.5273297E2,1.8810847E2,4.3691336E2,3.7311893E1,5.843861E0,4.9261622E0,1.1463566E0,1.5114683E0,1.3248751E0,3.3527687E0,1.7017776E0,1.4794083E0],"tree_param":{"num_deleted":"0","num_feature":"12","num_nodes":"39","size_leaf_vector":"1"}},{"base_weights":[-2.7961684E-2,-1.1671452E-1,9.833041E-1,-7.986518E-2,-1.0228384E0,5.4431487E-2,5.153598E-1,-3.4875628E-2,-4.608379E-1,-5.409546E-2,2.1227552E-2,-3.9545305E-2,6.673891E-1,1.5987739E-2,-4.0169427E-1,-5.8397937E-1,3.5809964E-1,8.902659E-2,8.140166E-1,-2.0667832E-4,3.6402177E-2,2.7329555E-2,-2.6384218E-2,1.9345004E-3,-4.0011458E-2,3.4100886E-2,-4.362825E-2,2.7715405E-2,-2.9543806E-2,2.3000244E-2,4.851525E-2],"categories":[],"categories_nodes":[],"categories_segments":[],"categories_sizes":[],"default_left":[0,0,0,0,0,0,0,0,0,0,0,0,0,0,0,0,0,0,0,0,0,0,0,0,0,0,0,0,0,0,0],"id":34,"left_children":[1,3,5,7,9,-1,11,13,15,-1,-1,-1,17,19,21,23,25,27,29,-1,-1,-1,-1,-1,-1,-1,-1,-1,-1,-1,-1],"loss_changes":[8.3576385E1,2.8492619E1,3.142044E0,1.4097101E1,3.3112946E0,0E0,3.6463394E0,1.3766973E1,8.97117E0,0E0,0E0,0E0,1.1663814E0,9.296942E0,1.10233555E1,1.0252296E1,5.369544E0,1.6173704E0,1.9164658E-1,0E0,0E0,0E0,0E0,0E0,0E0,0E0,0E0,0E0,0E0,0E0,0E0],"parents":[2147483647,0,0,1,1,2,2,3,3,4,4,6,6,7,7,8,8,12,12,13,13,14,14,15,15,16,16,17,17,18,18],"right_children":[2,4,6,8,10,-1,12,14,16,-1,-1,-1,18,20,22,24,26,28,30,-1,-1,-1,-1,-1,-1,-1,-1,-1,-1,-1,-1],"split_conditions":[6.2E1,1.5E1,3.9E1,1E0,4E0,5.4431487E-2,4.4E1,3.8E1,4.2E1,-5.409546E-2,2.1227552E-2,-3.9545305E-2,7.1E1,3.7E1,2E0,4E0,9E0,3.1E1,1.01E2,-2.0667832E-4,3.6402177E-2,2.7329555E-2,-2.6384218E-2,1.9345004E-3,-4.0011458E-2,3.4100886E-2,-4.362825E-2,2.7715405E-2,-2.9543806E-2,2.3000244E-2,4.851525E-2],"split_indices":[7,5,9,10,7,0,9,2,2,0,0,0,7,2,9,5,5,2,7,0,0,0,0,0,0,0,0,0,0,0,0],"split_type":[0,0,0,0,0,0,0,0,0,0,0,0,0,0,0,0,0,0,0,0,0,0,0,0,0,0,0,0,0,0,0],"sum_hessian":[9.289064E2,8.547726E2,7.4133766E1,8.224155E2,3.2357033E1,5.9430626E1,1.4703142E1,7.365294E2,8.588616E1,3.133087E1,1.0261643E0,1.0947239E0,1.3608418E1,6.476782E2,8.8851166E1,7.490917E1,1.0976987E1,3.077315E0,1.0531103E1,6.3084595E2,1.683228E1,1.0028867E1,7.88223E1,1.9521133E1,5.538804E1,9.042707E0,1.9342792E0,1.9366924E0,1.1406229E0,4.4330425E0,6.0980606E0],"tree_param":{"num_deleted":"0","num_feature":"12","num_nodes":"31","size_leaf_vector":"1"}},{"base_weights":[-1.4310327E-2,-9.838871E-2,9.523285E-1,-3.562119E-2,-4.4140863E-1,1.0560935E0,4.48764E-1,3.371325E-1,-7.409878E-2,-7.266029E-1,-2.5641942E-1,6.0406816E-1,5.4275244E-2,-8.019328E-2,4.8448127E-2,4.2302495E-1,-8.2102776E-1,3.7481077E-2,-1.8591446E-1,-2.7827263E-1,-9.0764207E-1,5.268273E-2,-7.366604E-1,4.8266992E-2,-1.0611135E-2,2.386744E-1,-4.24613E-2,2.4008805E-2,-3.4912445E-2,-6.270447E-2,2.26315E-2,2.61911E-3,-4.4844013E-2,-1.0391055E-2,3.353622E-2,-2.8619802E-2,3.5138976E-2,-5.849019E-3,-5.2904285E-2,-1.3450879E-2,3.3288337E-2,-1.1549657E-2,-5.6518774E-2,-4.0895264E-3,3.844925E-2],"categories":[],"categories_nodes":[],"categories_segments":[],"categories_sizes":[],"default_left":[0,0,0,0,0,0,0,0,0,0,0,0,0,0,0,0,0,0,0,0,0,0,0,0,0,0,0,0,0,0,0,0,0,0,0,0,0,0,0,0,0,0,0,0,0],"id":35,"left_children":[1,3,5,7,9,11,13,15,17,19,21,23,-1,25,-1,27,29,31,33,35,37,39,41,-1,-1,43,-1,-1,-1,-1,-1,-1,-1,-1,-1,-1,-1,-1,-1,-1,-1,-1,-1,-1,-1],"loss_changes":[7.692526E1,1.8728878E1,3.483673E0,1.0595929E1,6.913748E0,1.6936493E-1,4.1169505E0,7.2253227E0,8.35225E0,4.0007515E0,1.2385616E1,1.9878702E0,0E0,2.213987E0,0E0,4.5023985E0,3.3882344E0,4.7199483E0,6.412101E0,5.167968E0,4.2639523E0,1.0343805E1,6.236677E0,0E0,0E0,1.1809009E0,0E0,0E0,0E0,0E0,0E0,0E0,0E0,0E0,0E0,0E0,0E0,0E0,0E0,0E0,0E0,0E0,0E0,0E0,0E0],"parents":[2147483647,0,0,1,1,2,2,3,3,4,4,5,5,6,6,7,7,8,8,9,9,10,10,11,11,13,13,15,15,16,16,17,17,18,18,19,19,20,20,21,21,22,22,25,25],"right_children":[2,4,6,8,10,12,14,16,18,20,22,24,-1,26,-1,28,30,32,34,36,38,40,42,-1,-1,44,-1,-1,-1,-1,-1,-1,-1,-1,-1,-1,-1,-1,-1,-1,-1,-1,-1,-1,-1],"split_conditions":[3.4E1,9.2E0,5.4E1,2E0,1.2E1,6.2E1,1.03E2,7.6E0,2.7E1,2.3E1,1.25E1,1.1E1,5.4275244E-2,3.8E1,4.8448127E-2,1.8E2,3.5E1,1.5E2,1.69E2,2.2E1,9.5E0,1E0,9E1,4.8266992E-2,-1.0611135E-2,1E0,-4.24613E-2,2.4008805E-2,-3.4912445E-2,-6.270447E-2,2.26315E-2,2.61911E-3,-4.4844013E-2,-1.0391055E-2,3.353622E-2,-2.8619802E-2,3.5138976E-2,-5.849019E-3,-5.2904285E-2,-1.3450879E-2,3.3288337E-2,-1.1549657E-2,-5.6518774E-2,-4.0895264E-3,3.844925E-2],"split_indices":[7,11,9,9,6,7,7,11,2,2,11,9,0,2,0,8,2,9,9,2,11,7,8,0,0,0,0,0,0,0,0,0,0,0,0,0,0,0,0,0,0,0,0,0,0],"split_type":[0,0,0,0,0,0,0,0,0,0,0,0,0,0,0,0,0,0,0,0,0,0,0,0,0,0,0,0,0,0,0,0,0,0,0,0,0,0,0,0,0,0,0,0,0],"sum_hessian":[9.443467E2,8.6960645E2,7.474027E1,7.3602814E2,1.335783E2,6.106079E1,1.367948E1,6.814154E1,6.678866E2,5.140319E1,8.217511E1,5.0460706E0,5.601472E1,7.2020283E0,6.4774513E0,6.40278E1,4.1137385E0,3.3462857E2,3.3325803E2,1.5516006E1,3.5887184E1,5.053748E1,3.1637627E1,3.3713815E0,1.6746893E0,5.5785933E0,1.6234353E0,6.1466618E1,2.5611842E0,3.0813875E0,1.0323511E0,3.3030484E2,4.323738E0,3.2568674E2,7.5713134E0,1.2257659E1,3.2583468E0,6.02103E0,2.9866152E1,3.3513386E1,1.7024096E1,1.4544337E1,1.709329E1,4.0044727E0,1.5741206E0],"tree_param":{"num_deleted":"0","num_feature":"12","num_nodes":"45","size_leaf_vector":"1"}},{"base_weights":[3.0983527E-5,9.5204145E-1,-7.829012E-2,5.388182E-2,3.8291594E-1,-5.471689E-2,-4.93145E-2,4.7744893E-2,-1.2946384E-1,-1.7325206E-2,-2.948392E-1,1.2345505E-1,-3.0508926E-2,-8.855783E-3,-5.7000924E-2,-4.6198225E-1,1.7719123E-1,-5.4953927E-3,3.2261513E-2,-2.3469115E-3,1.6082583E-2,-4.829682E-2,-1.4976843E-2,2.1595083E-2,-2.7023688E-2],"categories":[],"categories_nodes":[],"categories_segments":[],"categories_sizes":[],"default_left":[0,0,0,0,0,0,0,0,0,0,0,0,0,0,0,0,0,0,0,0,0,0,0,0,0],"id":36,"left_children":[1,3,5,-1,7,9,-1,-1,11,13,15,17,-1,19,-1,21,23,-1,-1,-1,-1,-1,-1,-1,-1],"loss_changes":[6.9294365E1,4.636978E0,1.8326103E1,0E0,4.321193E0,7.5192194E0,0E0,0E0,1.1009402E0,6.8948216E0,8.985516E0,8.452232E-1,0E0,9.099422E0,0E0,6.556116E0,5.7600164E0,0E0,0E0,0E0,0E0,0E0,0E0,0E0,0E0],"parents":[2147483647,0,0,1,1,2,2,4,4,5,5,8,8,9,9,10,10,11,11,13,13,15,15,16,16],"right_children":[2,4,6,-1,8,10,-1,-1,12,14,16,18,-1,20,-1,22,24,-1,-1,-1,-1,-1,-1,-1,-1],"split_conditions":[1E0,4.1E1,1.6E1,5.388182E-2,-1.04E1,1.1E1,-4.93145E-2,4.7744893E-2,8.9E1,1.05E1,1.4E1,8.1E1,-3.0508926E-2,8.1E0,-5.7000924E-2,1.4E1,4.7E1,-5.4953927E-3,3.2261513E-2,-2.3469115E-3,1.6082583E-2,-4.829682E-2,-1.4976843E-2,2.1595083E-2,-2.7023688E-2],"split_indices":[3,9,5,0,11,5,